<?xml version="1.0"?>
<opencv_storage>
<DigitOCR type_id="opencv-ml-ann-mlp">
  <layer_sizes type_id="opencv-matrix">
    <rows>1</rows>
    <cols>3</cols>
    <dt>i</dt>
    <data>
      256 16 10</data></layer_sizes>
  <activation_function>SIGMOID_SYM</activation_function>
  <f_param1>5.9999999999999998e-001</f_param1>
  <f_param2>1.</f_param2>
  <min_val>-9.4999999999999996e-001</min_val>
  <max_val>9.4999999999999996e-001</max_val>
  <min_val1>-9.7999999999999998e-001</min_val1>
  <max_val1>9.7999999999999998e-001</max_val1>
  <training_params>
    <train_method>BACKPROP</train_method>
    <dw_scale>1.0000000000000001e-001</dw_scale>
    <moment_scale>1.0000000000000001e-001</moment_scale>
    <term_criteria><epsilon>9.9999999747524271e-007</epsilon>
      <iterations>1000</iterations></term_criteria></training_params>
  <input_scale>
    8.2048559245241304e+000 -8.0811105564821268e+000
    4.7148815685280843e+000 -4.4922773239811846e+000
    3.8493167505353880e+000 -3.5691369739390417e+000
    3.5029228792921612e+000 -3.1893825691128956e+000
    3.2365885074453047e+000 -2.8906449489445931e+000
    3.0077315869339092e+000 -2.6270809664235850e+000
    2.5864775958229034e+000 -2.1132793996035000e+000
    2.0936507090283811e+000 -1.3564110823082234e+000
    2.0227345528771421e+000 -1.1625749741618459e+000
    2.0012089426267750e+000 -9.6582936509725015e-001
    2.0055132807465168e+000 -1.0770592635615719e+000
    2.0118103257101998e+000 -1.1147408034263073e+000
    2.0637104654927745e+000 -1.2862667524268079e+000
    2.1346236563324483e+000 -1.4403460605679272e+000
    2.2999284703082279e+000 -1.7177826411023418e+000
    2.3559401711614996e+000 -1.8005562422876902e+000
    5.5620644110746627e+000 -5.3760543881469198e+000
    4.0028314906329507e+000 -3.7351011220791404e+000
    3.2107468954523251e+000 -2.8612492006030883e+000
    2.4759756254708885e+000 -1.9677917757840764e+000
    2.0871184759701396e+000 -1.3419145348778505e+000
    2.0129947887658362e+000 -1.1206770987948818e+000
    2.0009104842991414e+000 -9.7027757582899343e-001
    2.0125437979640632e+000 -8.9409732663649377e-001
    2.0687952930734084e+000 -7.6986316643879293e-001
    2.1144895456451653e+000 -7.1407351869328539e-001
    2.1849185837906266e+000 -6.5261010814205278e-001
    2.3058837286379403e+000 -5.7911702824152855e-001
    2.4447014768271136e+000 -5.1939887114228511e-001
    2.2295768409346257e+000 -6.2208848906077596e-001
    2.0221303096019776e+000 -8.6189160737133463e-001
    2.0250234868168326e+000 -1.1711939117196368e+000
    5.5101928443087731e+000 -5.3223043014208677e+000
    3.6388280127257806e+000 -3.3393703631539213e+000
    2.3491965666400469e+000 -1.7907809893239701e+000
    2.1285823245302868e+000 -1.4285927928896711e+000
    2.0473261726960370e+000 -1.2424920477574966e+000
    2.0176017740820607e+000 -1.1417641514969301e+000
    2.0096151474941757e+000 -1.1029822153787705e+000
    2.0060142275771398e+000 -1.0806168445604067e+000
    2.0219307926488890e+000 -1.1594612971616090e+000
    2.0374376975752120e+000 -1.2131104455070769e+000
    2.0239687302190488e+000 -1.1672659004771497e+000
    2.0001393319464902e+000 -9.8826556499782314e-001
    2.0446621580231779e+000 -8.0982029078426188e-001
    2.1714984339930141e+000 -6.6284099739262170e-001
    2.2154508434977895e+000 -6.3122189606543577e-001
    2.0007589375492043e+000 -9.7282803422474429e-001
    5.9092549694774794e+000 -5.7348835113617511e+000
    2.7601821257479129e+000 -2.3312226740743029e+000
    2.2071336717168135e+000 -1.5703213336477002e+000
    2.1004687723955477e+000 -1.3711584674883723e+000
    2.0673196553794169e+000 -1.2952943807967430e+000
    2.0532320388822627e+000 -1.2588668566261743e+000
    2.0702893570850525e+000 -1.3025853364741691e+000
    2.1663215828028961e+000 -1.4993786430481684e+000
    2.3381947019821818e+000 -1.7747281098651642e+000
    2.3888938105219948e+000 -1.8476722947611102e+000
    2.2826118846170016e+000 -1.6913779866342373e+000
    2.1396997804587068e+000 -1.4500850643305399e+000
    2.0084814902840855e+000 -1.0964333381386893e+000
    2.0205606550076278e+000 -8.6652240549179582e-001
    2.0995429136419816e+000 -7.3036558405709595e-001
    2.0009505293907139e+000 -9.6964094506212295e-001
    4.7623183365305017e+000 -4.5421587019564686e+000
    2.4038046735995566e+000 -1.8686625839687045e+000
    2.1443144933235465e+000 -1.4588369093922489e+000
    2.0532320388822627e+000 -1.2588668566261743e+000
    2.0516404174205669e+000 -1.2545276650784778e+000
    2.0796470224316681e+000 -1.3248374310113873e+000
    2.1997734722402371e+000 -1.5578723606684957e+000
    2.4088854362203089e+000 -1.8757714462371258e+000
    2.5882790822889685e+000 -2.1155999187365242e+000
    2.6570918238190315e+000 -2.2032082696519115e+000
    2.4658102817301115e+000 -1.9540535904726819e+000
    2.2169884102239164e+000 -1.5867821965635440e+000
    2.0440816648747102e+000 -1.2331509060227761e+000
    2.0000017199699691e+000 -9.9868938344729929e-001
    2.0197984555129582e+000 -8.6884445037147584e-001
    2.0008713027195126e+000 -1.0299567033670936e+000
    4.0492509475185612e+000 -3.7850539184837433e+000
    2.5046310504576348e+000 -2.0061684118911485e+000
    2.1396997804587068e+000 -1.4500850643305399e+000
    2.0764521181933109e+000 -1.3173556880996906e+000
    2.0940962722976462e+000 -1.3573863378139168e+000
    2.1676057549084637e+000 -1.5016888393841257e+000
    2.3756487952181988e+000 -1.8288601216958462e+000
    2.5793275301361374e+000 -2.1040547196651507e+000
    2.7893095616083339e+000 -2.3667977526040551e+000
    2.6570918238190315e+000 -2.2032082696519115e+000
    2.4447014768271131e+000 -1.9253026056848279e+000
    2.1849185837906266e+000 -1.5323084756485739e+000
    2.0258845687695284e+000 -1.1743488254375496e+000
    2.0023588022591849e+000 -1.0497612212499792e+000
    2.0018191950326338e+000 -9.5824787696644109e-001
    2.0294836714851812e+000 -1.1870815966982176e+000
    4.0492509475185612e+000 -3.7850539184837433e+000
    2.5864775958229034e+000 -2.1132793996035000e+000
    2.1656819899042388e+000 -1.4982259012124404e+000
    2.1009336566300623e+000 -1.3721507685269128e+000
    2.1013998472017548e+000 -1.3731442280239663e+000
    2.1502212671883476e+000 -1.4699053580615427e+000
    2.2311870107754768e+000 -1.6101123313825652e+000
    2.2705994613844886e+000 -1.6727990130265398e+000
    2.2528890969665163e+000 -1.6449783668670268e+000
    2.1767835353195943e+000 -1.5180388785655006e+000
    2.0578329407410236e+000 -1.2711335279856029e+000
    2.0026212150347122e+000 -1.0525251828526700e+000
    2.0026212150347122e+000 -9.5009603218204219e-001
    2.0002275045478699e+000 -9.8503006945275429e-001
    2.0142375667960963e+000 -1.1266522258866034e+000
    2.1754520024455504e+000 -1.5156837721956704e+000
    4.2215756080624258e+000 -3.9696651947288646e+000
    2.4284486300573014e+000 -1.9029482707662133e+000
    2.1808196104467652e+000 -1.5251436816665409e+000
    2.1237700563276016e+000 -1.4190961884575910e+000
    2.0772436824634344e+000 -1.3192200042398925e+000
    2.0695400149101935e+000 -1.3007567896992922e+000
    2.1085510765737050e+000 -1.3881870694295082e+000
    2.1190731307491091e+000 -1.4097047155048992e+000
    2.0612512640013754e+000 -1.2800032439405262e+000
    2.0131469405288946e+000 -1.1214218531011777e+000
    2.0071941270987654e+000 -9.1870262341963171e-001
    2.0401342356650289e+000 -8.1872928014885105e-001
    2.0532320388822627e+000 -7.9436518225608854e-001
    2.0034920593080856e+000 -9.4262659183839437e-001
    2.0756653034532837e+000 -1.3154954201885893e+000
    2.3536802477172425e+000 -1.7972856711257239e+000
    3.6322498447711564e+000 -3.3321426444818676e+000
    2.4701417813118010e+000 -1.9599157740244453e+000
    2.1688966005349561e+000 -1.5040053475840762e+000
    2.0662249537641126e+000 -1.2925761350104679e+000
    2.0651405102998894e+000 -1.2898664498758325e+000
    2.1357412308329691e+000 -1.4425006345953826e+000
    2.2177601539234963e+000 -1.5880616971045627e+000
    2.1747888102648427e+000 -1.5145086665582050e+000
    2.1051766821212374e+000 -1.3811339478441298e+000
    2.0278784666491969e+000 -1.1814885361428271e+000
    2.0019912525920254e+000 -9.5636106722182979e-001
    2.0626497845225482e+000 -7.7907296779343460e-001
    2.1004687723955473e+000 -7.2931030490717530e-001
    2.0134539799503415e+000 -8.9054079309934775e-001
    2.0535536007073323e+000 -1.2597373071880060e+000
    2.2352487566726298e+000 -1.6167077892524004e+000
    3.4744080966218309e+000 -3.1577243422412180e+000
    2.4433259689137983e+000 -1.9234182463482066e+000
    2.1631401522554223e+000 -1.4936305444753835e+000
    2.0741058634056442e+000 -1.3117869542654057e+000
    2.1313064069432528e+000 -1.4339149990319853e+000
    2.2873409638524058e+000 -1.6986318961067866e+000
    2.4745108469126924e+000 -1.9658163219899849e+000
    2.3962878242172252e+000 -1.8581051489422091e+000
    2.2368880997233673e+000 -1.6193603030128509e+000
    2.0858456903641436e+000 -1.3390445448304895e+000
    2.0100091731280467e+000 -1.1051755355199129e+000
    2.0069716239298829e+000 -9.1991682959146759e-001
    2.0398599939897042e+000 -8.1928803037291398e-001
    2.0102763522091025e+000 -9.0363569799300969e-001
    2.0040581120157057e+000 -1.0657646746522869e+000
    2.1037504771842030e+000 -1.3781290011193565e+000
    3.1856396386738153e+000 -2.8326080983879960e+000
    2.1821789023599236e+000 -1.5275252316519465e+000
    2.0954406052483727e+000 -1.3603188191448452e+000
    2.1897814138291687e+000 -1.5407445619925888e+000
    2.4076099754386298e+000 -1.8739888792430517e+000
    2.5740229745684555e+000 -2.0971957678041351e+000
    2.4179133299946014e+000 -1.8883506728023411e+000
    2.2696920633121476e+000 -1.6713863521964207e+000
    2.1814983807866231e+000 -1.5263336211798866e+000
    2.1599997800643176e+000 -1.4879211599721742e+000
    2.0927633908926553e+000 -1.3544639126629840e+000
    2.0568289954186447e+000 -1.2684902755352363e+000
    2.0030409445863939e+000 -1.0566861901113140e+000
    2.0004972560661636e+000 -9.7794800288349182e-001
    2.0013019959037246e+000 -1.0367400503370114e+000
    2.0578329407410236e+000 -1.2711335279856029e+000
    2.7232142857142860e+000 -2.2857142857142860e+000
    2.0800517767051674e+000 -1.3257772635786378e+000
    2.0699141075893679e+000 -1.3016705765102976e+000
    2.1869919367696657e+000 -1.5359136814952865e+000
    2.3371105445921527e+000 -1.7731389508807347e+000
    2.3962878242172252e+000 -1.8581051489422091e+000
    2.3009145358749041e+000 -1.7192735171340676e+000
    2.2511677444880975e+000 -1.6422453217986941e+000
    2.2078801252041482e+000 -1.5715763120715429e+000
    2.2418569241046806e+000 -1.6273676163828732e+000
    2.1968818542241446e+000 -1.5529433697400838e+000
    2.0796470224316681e+000 -1.3248374310113873e+000
    2.0096151474941757e+000 -1.1029822153787705e+000
    2.0001720189654089e+000 -1.0132018915742809e+000
    2.0000520310548082e+000 -1.0072393179344870e+000
    2.0564965432427846e+000 -1.2676109840316181e+000
    2.4297821876450172e+000 -1.9047899051341757e+000
    2.0152081108945734e+000 -1.1311594379841015e+000
    2.0148809230272708e+000 -1.1296545502874207e+000
    2.0833333333333335e+000 -1.3333333333333335e+000
    2.1414188870116013e+000 -1.4533564249554147e+000
    2.2733357771247862e+000 -1.6770509831248424e+000
    2.3109184217581120e+000 -1.7343253335751863e+000
    2.3414645289542348e+000 -1.7795130420052185e+000
    2.3582122559049843e+000 -1.8038390796807633e+000
    2.2940658361858923e+000 -1.7088910097751959e+000
    2.1644077717168213e+000 -1.4959251091078882e+000
    2.0551776761500293e+000 -1.2641027280188375e+000
    2.0104112919348029e+000 -1.1073740886722849e+000
    2.0086038729303231e+000 -1.0971587056727601e+000
    2.0170735718187816e+000 -1.1394812341782821e+000
    2.1280418682595204e+000 -1.4275323483472062e+000
    2.7011254008972907e+000 -2.2583179581272432e+000
    2.0254521040416464e+000 -1.1727699723729663e+000 2. -1.
    2.0098769327105113e+000 -1.1044438489255137e+000
    2.1028062803410843e+000 -1.3761315854297720e+000
    2.2844961490519697e+000 -1.6942722259526410e+000
    2.4954095769292892e+000 -1.9938731603202222e+000
    2.5061838467710471e+000 -2.0082338759044061e+000
    2.4101644312367605e+000 -1.8775576028257519e+000
    2.2460564974731776e+000 -1.6340981534075347e+000
    2.0737189488380841e+000 -1.3108623388065004e+000
    2.0241777665822398e+000 -1.1680501210441778e+000
    2.0110995139981882e+000 -1.1110500593727697e+000
    2.0237606496034255e+000 -1.1664823678697775e+000
    2.0949912182020127e+000 -1.3593402035481257e+000
    2.3469726519310194e+000 -1.7875467116182813e+000
    3.4688017116317393e+000 -3.1514916534201802e+000
    2.0382359782931676e+000 -1.2155905719722202e+000
    2.0283322226232365e+000 -8.4524926391938815e-001
    2.0106838744402684e+000 -9.0184116073255316e-001
    2.0101423127845077e+000 -1.1059078035581651e+000
    2.0977067704350980e+000 -1.3652288325618589e+000
    2.1520237312415560e+000 -1.4732542789614322e+000
    2.1562848913946504e+000 -1.4811202778596042e+000
    2.0792434706569747e+000 -1.3238986295133919e+000
    2.0197984555129582e+000 -1.1509540051414826e+000
    2.0006883422985786e+000 -1.0265827067859918e+000
    2.0021711195676986e+000 -1.0476934776491957e+000
    2.0044008307401606e+000 -1.0685756559945905e+000
    2.0470259684027741e+000 -1.2416387021459450e+000
    2.2581066490415065e+000 -1.6532302122326834e+000
    3.0044070583950737e+000 -2.6231921300019940e+000
    3.4914192228960683e+000 -3.1766191290283903e+000
    2.1242990195514269e+000 -1.4201461314312653e+000
    2.0016549408663260e+000 -1.0415168495589702e+000
    2.0395867749447909e+000 -8.1984701183026676e-001
    2.0662249537641126e+000 -7.7364881875364477e-001
    2.0366485272010211e+000 -8.2601122234349611e-001
    2.0231421336881135e+000 -8.5900625020528099e-001
    2.0263208881635482e+000 -8.5039040552437428e-001
    2.0325922497925126e+000 -8.3502888163607158e-001
    2.0276530470556402e+000 -8.4696064981930674e-001
    2.0118103257101998e+000 -8.9706952228389236e-001
    2.0003135378366208e+000 -9.8244907530467473e-001
    2.0377027773797503e+000 -1.2139363759013135e+000
    2.2177601539234963e+000 -1.5880616971045627e+000
    3.2065122497873912e+000 -2.8564241910401122e+000
    3.6791743123093847e+000 -3.3836340806648604e+000</input_scale>
  <output_scale>
    227158990. -2.1580103950000000e+008 227158990.
    -2.1580103950000000e+008 227158990. -2.1580103950000000e+008
    227158990. -2.1580103950000000e+008 227158990.
    -2.1580103950000000e+008 227158990. -2.1580103950000000e+008
    227158990. -2.1580103950000000e+008 227158990.
    -2.1580103950000000e+008 227158990. -2.1580103950000000e+008
    227158990. -2.1580103950000000e+008</output_scale>
  <inv_output_scale>
    4.4022030561062097e-009 9.4999999559779691e-001
    4.4022030561062097e-009 9.4999999559779691e-001
    4.4022030561062097e-009 9.4999999559779691e-001
    4.4022030561062097e-009 9.4999999559779691e-001
    4.4022030561062097e-009 9.4999999559779691e-001
    4.4022030561062097e-009 9.4999999559779691e-001
    4.4022030561062097e-009 9.4999999559779691e-001
    4.4022030561062097e-009 9.4999999559779691e-001
    4.4022030561062097e-009 9.4999999559779691e-001
    4.4022030561062097e-009 9.4999999559779691e-001</inv_output_scale>
  <weights>
    <_>
      -2.0030445079593875e+000 -5.2307731239273081e-001
      1.5087817226462596e-001 7.4536105304372902e-001
      -1.1856538052077628e-001 3.8704660067942476e-001
      -5.9533113519321357e-001 2.8133805014866703e-001
      -2.8328484080313249e-001 1.6253875363676962e-001
      1.2512618454318719e-001 -9.1831203643177234e-002
      4.4864699846786649e-002 1.3185043287432683e+000
      -6.0037862789646346e-002 -3.4280544955483527e-001
      -3.0238535696597793e+000 -1.3168741630708147e+000
      -5.7931934160488796e-001 -1.0840280761455585e+000
      -2.8881190059747530e-001 -4.8784962241817947e-001
      1.2179098099924019e+000 -2.5732102530076500e-002
      -7.7408216423384202e-001 1.6949569400661406e+000
      -3.5599309419618319e-001 5.3494296644000960e-001
      2.9754101614231904e-001 2.3549099872969332e+000
      -3.6689902911123384e-001 1.7334253276681610e-001
      -1.5516268690913643e-001 -1.6339163198914750e-001
      -2.4866672894463893e-001 -2.1881855002132031e-001
      -3.1376760645573522e-002 -1.5415929129034736e-001
      4.0147083800920899e-002 -1.0528058726747421e-002
      -5.9466517841785327e-001 5.1608167144001305e-001
      -2.0008887396883709e-001 3.3962345789653309e-001
      -9.1854430444162430e-003 4.1679611608380179e-001
      2.8013338756620509e-001 6.7811786916606731e-001
      9.9962875679792629e-001 3.8782819488227716e-001
      6.6742691050788130e-002 -3.7809382903551519e-001
      1.2736927453654631e-001 -4.3867928933709194e-001
      -3.7968551574028675e-001 2.9720347599569191e-001
      -6.6941456291364043e-001 7.2449166157526579e-001
      -4.9317600194386729e-001 4.0805921251735167e-001
      1.5715512936526521e-001 1.0916179194405115e-002
      -1.0287764988316299e+000 3.0766774558487081e-001
      5.2088085558319164e-001 -2.6698167133946166e-001
      -4.3733453288705676e-001 -1.0473358283942578e+000
      -2.0514776274860061e-001 -4.3755374930990232e-001
      6.7746737623464659e-001 -3.5041626060907743e-001
      -1.5456249425317320e-001 -3.5598825834075622e-002
      1.2541712593234913e-001 1.7047422850833693e-001
      3.3585236348559061e-001 4.4160433315545056e-001
      -9.4977056650597247e-001 3.2251033814605634e-001
      -3.8044020369504712e+000 1.1577919055194530e-002
      -3.4862790810334693e-001 4.4766471263674218e-001
      -3.2696016490766966e-001 -5.4150378425026047e-001
      6.2423494713346384e-001 -1.0962665479228199e-001
      1.9359911054480206e-001 9.7422966813529840e-002
      -7.5499910462051878e-001 5.4287926759491423e-001
      4.6755402312312949e-001 7.1158910341143156e-001
      -3.9884916551276367e-001 4.0783037386346810e-001
      -1.0356552310999061e+000 1.2219954434259510e-001
      3.2232347137971024e-001 -4.0580240812799179e-001
      -3.7505473942769091e-001 7.5445959806029833e-002
      7.5605111250216339e-001 -2.3460682179829995e-001
      1.3875125760366669e-001 3.0493854925026983e-002
      3.0833595530340030e-001 -5.6609658879401330e-002
      4.4079937735002972e-001 5.4609837517472248e-001
      -3.6138394722732566e-002 -1.4949515037920549e-001
      6.9133857298537462e+000 -6.1924451841402040e-001
      7.7782291513407986e-001 -1.0532624059738434e+000
      -4.3948170770082862e-001 1.2708145161811069e-001
      1.3125588276281004e+000 3.2342068236517185e-001
      -9.0534638963245284e-001 -7.7657424520318308e-001
      1.1498625509496117e-001 -4.1295005742067493e-002
      6.2595543629495742e-001 -3.5936984326142635e-001
      1.1991700969650365e+000 -4.8329083935770178e-001
      4.7397004832143946e-001 1.7359531175004750e-001
      3.9644545327025615e-001 -1.8766258533610161e-001
      3.7662822308062938e-001 -5.0936211220925243e-001
      1.8098005638060635e-001 -2.8708519685411005e-001
      -2.7621702578684670e-001 -7.2260538017961928e-001
      -2.4925814182478029e-001 1.9494087534699103e-001
      4.7756922677754693e-001 2.4505954481395370e-001
      1.6919701809296228e-001 -1.2669565532433349e-001
      9.7952786917535228e-001 8.3696226645020422e-001
      3.8891437637914927e-001 -1.0971760270911295e+000
      1.3090807215758235e-001 8.1650372218705636e-003
      6.3947862054130522e-001 -3.5458600241447857e-001
      -5.3521144192042305e-002 -1.1054329788459809e+000
      5.2492285161317009e-001 -7.5730558517599897e-002
      -2.7877430600076170e-001 -2.8091323818780584e-001
      4.9056694474349904e-001 -3.9603842505757791e-001
      2.6315241852763765e-001 1.7011337518982420e-001
      -2.9165621524160645e-001 -6.4961146856718416e-002
      -2.9159331557396928e-001 2.7738787522809283e-001
      7.0182003601101883e-001 -1.5400877411299901e-001
      2.5211850118444190e-001 4.4583047922010116e-001
      -6.1772598469502810e-002 -1.7152085957899424e-001
      1.4212689213324087e-001 -1.6321105919659164e-002
      4.0272302935384058e-001 1.0937224819704799e-002
      1.5483069956726447e+000 1.8746415363018895e-001
      6.1095373638458106e-001 -2.0658559843191360e-001
      -7.0515548641358256e-002 -2.4661734426160936e-001
      1.3665574356442109e-001 6.3421060934018586e-002
      -7.6920184596976016e-001 -1.3185069378619266e-001
      1.3382543190367843e-001 4.5272736792321183e-001
      -1.1985882862925233e-001 4.7120782586251730e-001
      1.3566138647408735e-001 -4.3997692711789375e-002
      -6.1234423384148666e+000 -3.9613646339051768e-002
      -3.5297003842259383e-001 -2.3041619415430872e-001
      -1.7549169070904078e-001 6.3707839208895700e-001
      1.6569417347222212e-001 -5.1666740474252881e-001
      1.0737142127973116e+000 2.7144982141616699e-002
      1.2695411276509666e-001 -1.7560947189806164e-001
      -1.3578512724122144e-001 -1.1642808515113924e-001
      5.2074899297068411e-001 -8.8938599726859657e-001
      -5.4195941772451324e+000 -5.2684609665493132e-001
      -1.7468409493956633e-001 -1.0013684901725399e+000
      4.9346641774336529e-002 4.2380021540442299e-002
      -2.9173034917627494e-001 2.4855944949864597e-001
      8.7403692649364606e-001 -4.0388714414332444e-001
      5.4731738385749085e-001 -1.2823505482734163e-001
      4.5764594107504797e-001 -4.0545725691109707e-001
      -4.1401028014661716e-002 7.2150895187174491e-002
      -7.5167666734019569e+000 8.5067625348855858e-001
      3.2189497263887168e-001 4.7144554842163283e-001
      4.0615674882401032e-001 -5.3090763706296373e-001
      7.5880962838357224e-001 -2.4786214401876022e-001
      -4.2366455441917727e-001 1.1760847872336419e-001
      -1.6118522134155852e-001 -2.0591461856639204e-001
      6.8891269286171604e-003 4.7527268338393197e-001
      -8.4559042441261556e-002 1.9831313923541469e-001
      -4.4262578165904394e+000 -1.8356130349523070e-001
      -4.9292427417180684e-001 5.7808222614943650e-001
      -1.2274149689070178e-001 5.2652923195637347e-001
      -4.4713074702351152e-001 4.8762467821914990e-001
      -1.7849058306537782e-001 5.3026554761435440e-001
      -1.2022077919294892e-001 4.5189187304250872e-001
      -1.2330303328802932e+000 5.5178490151399119e-003
      -9.1298985268651955e-001 2.6836587913063192e-001
      2.7434268651270526e+000 6.6492803565967129e-001
      -3.0815154266482425e-001 -2.6016668914810415e-001
      -4.9938237537928609e-001 -4.5459610216179630e-001
      -1.9086220532114051e-001 -4.8820386383635933e-001
      2.8297337451587384e-001 -4.3948975731547418e-001
      -6.4958877164908724e-001 -2.9111553973550347e-001
      -6.3648005767652216e-001 -1.2211228668686616e+000
      -1.7448656029173285e-001 1.9526016589555234e-001
      -6.8853545667545368e-001 1.8785623737594659e-001
      1.6446707657205359e-001 -4.9605763071409725e-001
      1.6953809966289330e-002 -3.3247871557977857e-002
      8.8205790244973115e-001 3.2213345497389140e-001
      -2.1899762022945607e-002 -4.0271712353467509e-001
      -3.2830500529987677e-001 7.3004206414687678e-001
      1.1776901705314531e+000 2.5154091739373835e-001
      3.1831171966090262e-002 -3.1025157076197057e-001
      4.9218901570085399e-001 -1.0509624933041155e+000
      -3.2546683987006420e-001 -8.9237290247324463e-001
      2.5856477557074670e-001 5.1033730282379863e-001
      9.0060318829649733e-001 -5.9692013762261309e-001
      -2.1201642584442471e-001 -4.4744189834771514e-001
      2.2851174312682618e-001 1.7223862202554199e-001
      1.0418283609524495e+000 -2.3959844660413188e-001
      -1.4429515859768979e-001 4.7784400141345618e-001
      1.1580202323728881e+000 4.7122553450823829e-001
      -1.3760275490212084e-001 -1.5186485731757613e+000
      8.5857750904200877e-002 2.5180659826769797e-001
      1.7518421791780130e+000 -1.1029326944489574e-001
      -9.7440354624215353e-001 2.4480497809147295e-001
      -6.2339929437794028e-001 -1.1287701665123866e+000
      1.2071704677503365e-002 7.4763228309229046e-002
      -3.5488814781093524e-002 -1.2857478117486362e-001
      5.8396130710113026e-001 -1.1148138264459297e+000
      2.8248906591924272e-001 -8.0085112409724057e-001
      -1.4799564204245763e-001 4.1553571746867232e-002
      9.8981697446431061e-001 -1.0020195604126371e-001
      -6.8280159316856470e-001 -3.3791499097811251e-001
      -1.6510218171761487e-001 1.5734047633044626e-001
      2.8354269373584773e-001 -3.3129393020309833e-001
      4.6156064748584891e-001 -3.5230252772670584e-001
      2.4194939294824387e+000 -2.5445844419241170e-001
      7.6241966036228140e-002 -2.1895251151827222e-001
      -1.2271678486676642e-001 -8.9429356851222308e-001
      7.1644384773674297e-001 1.3805879708453372e-001
      -7.8328507064438091e-001 7.7726954165398587e-001
      -3.1314223278262976e-001 2.2651181598360098e-001
      -2.4689672539606417e-001 5.3855442964828593e-001
      3.2383431557902903e-001 2.7616421747118491e-001
      3.6880457205540305e+000 1.5731255922653933e-001
      1.0791094190212830e-001 -5.4940616933173769e-001
      -3.3759908568091829e-001 -3.5583677126335661e-001
      1.1065144967223872e+000 -2.0399127994207716e-001
      -2.4074205207519256e-001 1.6455007072205680e-001
      -6.6873544857922329e-001 2.9612535240478036e-002
      2.5993327263503102e-001 2.5805215431997336e-001
      -5.7017466473119871e-001 7.1810091227331185e-001
      4.6708373068184130e+000 4.8774559988601024e-001
      6.1086241207627921e-002 -6.0366485226012345e-001
      1.5504922447546424e-001 3.2611962995081240e-001
      5.1252351809400942e-001 -3.7292434081025511e-001
      -9.6935068530461341e-002 5.7277628333531623e-002
      -6.0723198786139054e-001 -3.2295077367918493e-002
      5.0755287621285750e-001 3.9484994881471580e-001
      5.2131150050807917e-001 6.2674219308708076e-002
      5.9914448792962105e+000 -1.0857784602023632e-001
      -5.4400822421944028e-001 -8.2821233360389823e-001
      -2.5324797396751109e-001 2.2109936547804690e-001
      3.0131610925032298e-001 4.3944626886562382e-001
      -1.1467081804162700e+000 -5.3260893745026627e-001
      -1.6181893432923258e-001 1.8670323605052053e-001
      -3.7263985310650602e-002 -3.6185043454381333e-001
      -5.0815552340889317e-002 2.5670003601218866e-001
      8.0026610517654859e+000 -3.0081089362683422e-001
      8.9401977432985624e-001 -6.7772424925962993e-001
      -2.6510204081197258e-001 -6.2899310354164351e-001
      2.2418276197352988e-001 -7.6641072671879684e-001
      -8.8786227927108008e-001 1.6881511999508339e-002
      -3.0371271550975770e-001 -8.5680370852642462e-001
      -7.5111817142297166e-001 2.9953187363023159e-001
      3.1694068421118143e-001 -1.3801415232343716e-002
      6.5490384500475898e+000 5.0658500931018174e-002
      -1.3173385204851845e-001 4.0380204849546142e-001
      5.1219326539440724e-001 -5.5356753643351964e-001
      7.7170450089951703e-001 5.7867441223180127e-001
      -9.5669460544691698e-001 2.1842690928770137e-001
      -3.3808504572019987e-001 1.3735421653221677e-001
      -1.0860228082971259e-001 -3.3918272910539743e-001
      -2.6895731470051953e-001 2.4650203794042529e-002
      9.0305054479896167e+000 2.3925182219875860e-002
      3.3442112736384183e-001 -6.3660797721935269e-001
      -5.5425514528759978e-001 -6.0928797139484847e-001
      1.2002549414289777e-001 -2.2392108999849092e-001
      -8.1915569613778783e-001 -6.5745547556629647e-001
      -6.2466843308381226e-001 2.7629861259215327e-001
      -2.4656929332463687e-001 6.9204565065935875e-001
      3.6304391805968861e-001 -5.4747670289380232e-003
      5.0365897893556593e+000 -3.3702109467916808e-001
      1.4100692847817436e-001 1.2924216063226096e-001
      1.5567649235267317e-001 -5.4909854211571563e-001
      2.6704977702938082e-001 -1.0159170501384635e-001
      4.6320341097017320e-001 -4.3729632354990049e-002
      2.0123524556139386e-001 -3.6854116679165977e-001
      3.0760913169577370e-001 2.7324035275115423e-002
      -6.4435590817401744e-001 -8.6422903660838352e-002
      3.1287944424384508e+000 5.3189802313568668e-001
      1.1264953769504892e-001 3.7066700648027323e-001
      1.2056675593783689e-001 -7.4698265364034100e-001
      1.0978416448713481e-001 -1.7413826766395374e-001
      4.0088348344908592e-001 3.8918834648596118e-001
      -6.0450852085442042e-001 -9.7547935398132876e-002
      -1.4331881761633417e-001 4.8936956467023374e-001
      -2.0703598683391261e-001 3.8014882328003569e-001
      3.2805249653143385e+000 9.6541885665320648e-001
      -1.6969785846133253e-001 1.0927408666714176e-001
      4.3033983724771563e-001 -1.0166606102298525e+000
      -5.3584952543818338e-003 7.1656719951657355e-001
      -4.8282154979138481e-001 3.6378335299088105e-001
      -2.9015401571484745e-001 4.8434508130858139e-001
      -4.6090571064547016e-003 5.2075464720753628e-001
      1.7314342402832497e-001 -9.1308565580915324e-002
      -6.9038662140587155e+000 -1.0667661560760887e-001
      -3.8497991187249520e-001 -3.6126476840010219e-002
      1.6232261071815805e-002 5.4567188121786081e-001
      1.2855548220927944e+000 -2.2232899119280883e-001
      -8.5873338390295184e-001 3.7687205057919093e-001
      -7.0376638514755474e-001 5.4537093014788307e-001
      -8.6482295927605299e-002 5.1861569741967595e-001
      -7.9664024987696813e-001 4.0121916424876103e-001
      2.0662959249301056e+000 2.4946825243973500e-001
      -2.8696612556847212e-001 8.8517968346922482e-001
      -5.8211667671929401e-001 -3.9056739440492005e-001
      -1.4335031182689830e+000 2.4121222898339387e-002
      -2.7651093103752178e-001 1.9737769831742735e-001
      -1.5283044393836479e-001 2.7516294684365505e-001
      -4.0018701934698175e-001 4.6810975294542634e-001
      -1.7305461869457972e-001 7.8422597582310050e-001
      -1.6641088978374718e-001 1.8822471993710449e-001
      -1.5130434890897868e-003 4.8484923154466059e-001
      -5.7152259954782991e-001 -1.7519523660947986e-002
      5.7975666685655534e-002 -4.5303925324816618e-001
      -2.6293925644275240e-001 4.1819129228933866e-001
      2.3295374839398177e-002 -3.6311827569225230e-001
      2.5253894029841667e-001 -5.1197665352725374e-001
      -6.1569666105929921e-001 -3.5955635685099241e-001
      3.2680680868863217e+000 -6.5661145218610761e-001
      7.0242845545921986e-002 -6.0336358189361650e-001
      -3.9971483459622470e-001 -7.4050442721793164e-001
      1.0591479901580954e-001 -5.4615021474497660e-001
      5.0885427863066535e-001 2.1647244418083333e-001
      -9.9851023078499668e-001 -1.5198656385453735e-001
      -4.8582686091333122e-001 2.4330151235116315e-001
      4.3922462913446864e-001 -2.6816871151338899e-002
      1.0337571700431514e+000 -1.6242095953300237e-001
      3.4998073203362068e-001 -2.0586090188982015e-001
      -2.6805379715242783e-001 -8.2150238188126445e-001
      6.6119511775540807e-001 -2.7055258886342642e-001
      9.7083784151180810e-002 5.6730424466990581e-001
      1.5460651307975204e-001 1.1723539355710895e-001
      3.7259451892169598e-001 -2.1214322149206008e-001
      -1.1587951038380212e-001 -4.3511166877477428e-002
      1.1324439360207637e-001 -3.9566079719261432e-001
      -2.7107212497526473e-001 -4.9124420610856628e-001
      -4.6335011648089536e-002 -6.1840137110064097e-001
      2.3745514014076416e-001 -5.7473279064648708e-001
      -8.9042938548162975e-001 -6.9290364611284447e-002
      -4.7753899576453124e-001 3.9337933609688414e-001
      2.5272477520787647e-002 1.4269269172136318e-002
      -4.8177482713440828e-001 -1.3282527088812762e-001
      6.4396472543602631e-002 -7.0250750775291204e-001
      -1.2942147160550215e+000 -3.6744300109346134e-001
      -6.8129385064687342e-001 1.1099187988032351e-001
      7.0755577858658691e-001 -3.8049918803293581e-001
      -8.7790091009374760e-001 6.0405563788966321e-001
      -1.2773261883265024e+000 -4.8476899997661066e-001
      -2.1138574731271872e-001 7.6577197615286619e-001
      4.2101212610874739e-001 1.3967691692188425e-001
      2.8269383633719722e+000 2.1004305736386714e-001
      3.9652861999920580e-001 -4.1536135647203393e-001
      -6.2628227793562460e-002 -6.1036598410882947e-001
      -8.1749657353631794e-002 2.2590459886716444e-002
      -3.5553643919673084e-002 7.6830705206794470e-001
      -4.0530432359439778e-001 1.3352238646648307e-001
      6.5349722801478016e-001 3.6092322375037300e-001
      -1.1637543291199655e-001 2.3185493693901144e-001
      2.2562340501677842e+000 2.5956041217323419e-002
      -3.3564922924134882e-001 -1.4513355637932035e-001
      -5.2775780851068799e-001 -6.9338787492900467e-001
      3.0741992264428802e-001 -3.4717491414501161e-001
      -6.0823499036146522e-001 -2.2159964800446404e-002
      -4.6731276139935657e-001 -2.6756713016086803e-001
      -2.3445543036324329e-001 5.6503012701487798e-001
      -9.7273008527025839e-001 1.1098202176231559e-001
      5.8023790893307847e+000 -1.5293369761901027e-001
      7.8380093826941810e-001 8.6567250300440635e-001
      3.7091338134492791e-001 -1.1233342317765684e+000
      -8.3071819954498555e-002 2.8029158168597773e-001
      -1.3519988272689154e-001 3.9243861108589240e-002
      -3.4238548793209328e-001 3.5178659186483924e-001
      -2.0441767778729120e-001 8.6868485575273477e-002
      -2.0628283517354060e-001 -1.3192658135628527e-001
      1.7235129566747276e+000 3.0294336096501871e-002
      1.0623720662918468e-001 5.1487812619881468e-001
      -1.2458390675356537e-001 3.9202038713457366e-001
      -1.0513266610213215e-001 -1.2203408367840121e-001
      -6.5525411143660195e-001 -1.3608393828831064e-001
      -5.0841423884017356e-002 2.3459411530724794e-001
      -6.5213983170727940e-001 3.1521752932711061e-001
      2.8740569849112740e-001 4.5862074971657879e-001
      -2.1370502859250098e+000 1.2104783818278233e+000
      -3.2256336500227245e-001 4.7138818768555558e-002
      6.0681993568231896e-001 -1.9725064117375193e-001
      -1.2175521814036337e-001 2.6242955360716132e-002
      -3.3967210177967722e-001 3.4707571909859325e-001
      -2.3216556095821464e-001 -1.5048091232442726e-001
      -1.3781994330781711e-001 3.8136810421037864e-001
      -4.0601206746329982e-001 -2.4064506381308578e-002
      -1.6635659519753809e+000 -1.5225876628103177e-001
      3.8312760637292326e-001 -5.2238149736585893e-001
      1.9642545451949972e-001 -3.3853364303769834e-001
      4.9708693434855809e-002 1.6228955015849314e-001
      9.4465399578986342e-001 8.2671926827264777e-002
      6.2231530237582278e-001 3.2690975114979287e-002
      -3.1072032659317639e-001 -3.4659339022490521e-002
      1.6923912927537729e-001 -1.9717454737107573e-001
      -4.7488784393874439e-001 1.9119793263262422e-001
      1.8592975790136021e-001 -6.7330410084279246e-001
      -3.0757356760112892e-002 -6.1203401817286296e-001
      1.5151916836450947e+000 -3.7419273165217415e-001
      1.2345223737685376e-001 3.0592428183025733e-001
      -1.0544020097662967e+000 5.3191437510361061e-001
      7.4701023781359999e-001 6.8586321372570813e-001
      -5.0851392313439915e-002 1.9538345049718553e-001
      3.7837501529617255e+000 3.6098178785656593e-001
      1.8667366921275375e-001 -9.3127852855174009e-001
      1.7312188000314502e-001 8.7919742521294786e-001
      8.3364811711863784e-001 1.4013958282445044e-001
      -1.2410665002848348e-001 -1.1069543656870655e+000
      6.0323178939052521e-002 3.7246198196709390e-001
      2.1359017375453035e-001 -3.8769193336886792e-001
      1.3322027469871962e+000 -1.2916937862527491e+000
      7.2467892194486938e-001 -5.0509198766043935e-002
      -7.2161880564360048e-001 2.5662584610717590e-002
      -5.2274878870187502e-001 1.5368246736633773e-001
      -2.2036057573171686e-001 3.3497088275088688e-001
      4.4708276577213701e-001 3.5821015967800468e-001
      -1.1181552612689376e+000 8.7799503014890534e-001
      5.3029670700054199e-001 2.8561703715976700e-001
      -4.1083142148462204e-001 1.0875389360100711e+000
      4.8838175840370290e+000 1.5471367405430290e-002
      4.5025931519208706e-001 -1.1453385444505887e-001
      3.5428990573785835e-001 7.8210685065899432e-001
      2.1630812211851108e-001 -3.6201194519212818e-002
      -3.3006086418810859e-001 2.0524948438648680e-001
      5.3538824971849408e-001 -4.2367289281485060e-002
      5.6280395796366101e-001 5.2302885004180422e-001
      -9.6946683959543634e-001 7.0834021933720759e-001
      -3.1776385020644184e+000 -3.0312731661538378e-001
      -1.8892146208583568e-001 2.2633010757227365e-001
      -6.5956675062980599e-002 4.0272100730278754e-001
      3.0691931387991866e-001 -1.8706425605545560e-001
      -3.7042364501103758e-001 2.9365602799406154e-001
      -4.8757914693640225e-001 1.5215238284786481e-001
      -4.3994841940234125e-001 2.9252065127579224e-001
      -5.3607302223638159e-002 5.2162766217237297e-002
      1.5472583195966905e-001 -7.7439501187301385e-001
      -5.0745249034319873e-001 -1.5250448904195069e-001
      2.2505752559004895e-002 -1.5222069872768743e-001
      -7.4163088250103404e-001 -2.8007007277915069e-001
      -3.0847826321293520e-001 -7.6341892664880617e-002
      -1.1064212927312375e-002 1.7644192236498774e-001
      -4.2810299119579781e-001 1.5648527127980058e-001
      1.0354384739342883e+000 -2.8679408376647880e-001
      1.6676663385068964e+000 -2.7872280344067663e-001
      -1.7011345281049264e-001 8.0106587459310749e-002
      -5.4792672204166670e-001 -5.0712413925926036e-001
      1.9893546823992192e-001 -9.9046853476359165e-001
      -5.1354124336256257e-001 -4.6884483038006536e-001
      -9.6785555229124534e-002 -1.5149547811651712e-001
      3.4539202627733590e-001 -1.5045729987088069e-001
      -1.2895066212210965e-001 -1.8635519452801863e-001
      -7.1610717485156572e-001 -1.2327259262460548e-001
      -8.1961448772929579e-001 -2.5763644025993387e-001
      5.4957670312525508e-001 -3.7371901175986988e-001
      -1.4146283900203058e-001 -8.3798577245547040e-002
      1.2430181270895534e-001 -9.0861505329641781e-002
      -5.3045701744208984e-001 3.4625921369469798e-001
      -2.7649092527497193e-001 2.1819256334505688e-001
      6.8393139582251083e-001 1.8181521722963983e-002
      1.3597859911871493e+000 -8.0638679842344452e-001
      2.2411681954962545e-001 -8.2077877541222000e-001
      3.1030255042650312e-001 -5.1871979406231361e-001
      -2.0941611095122492e-001 -5.1387076254911956e-001
      -7.3595798047691086e-001 -2.4038857367067915e-001
      7.9280558032885001e-002 -3.9720946422407960e-001
      7.6813528896193461e-001 -2.0963195860203099e-001
      2.6880910313142620e-001 3.4016910411761658e-001
      1.2893860362011644e+000 1.5301893992413873e-001
      4.7678906406528032e-001 -3.7378028887954590e-001
      9.7223437453674344e-002 -2.1254497026065314e-001
      7.8275626748740790e-001 -4.6381973043738339e-002
      -2.6067982209737300e-001 -2.6073742686198548e-001
      -2.4059764872693867e-001 -2.7850099979321735e-001
      5.1462192569467036e-001 -3.3954482509523193e-001
      5.0410792183794173e-001 -1.2681265038452387e+000
      -2.2576568072603695e+000 7.3721538517816299e-001
      -8.6408180667679158e-001 -3.5599094174410989e-001
      8.2649559766500610e-002 -2.4798971655618723e-001
      6.8344681230140936e-001 3.0884108932169041e-001
      -5.9546136666173388e-001 -6.4282751075887667e-001
      -1.4233332397720413e+000 2.5631672223834556e-001
      5.3907555218373260e-001 6.2572211532179522e-001
      1.5953918824185667e-001 -1.3464395654496492e-001
      1.6860640188125005e+000 6.1579644532089799e-002
      -2.0490827788574462e-001 6.0434734977259229e-002
      5.3810099185035154e-001 -3.0603166423101585e-001
      1.9000239697742619e-001 -1.1718736470494485e-001
      8.6960840749963109e-001 3.0132314482368022e-001
      5.0047864447634656e-002 -1.6326579538437633e-001
      9.8069105108287069e-001 1.0754617942561015e-001
      -3.9352569971712736e-001 1.6629362824320854e-001
      -3.7516879248494767e-001 1.7727943688351994e-001
      -6.5459641175982020e-002 -6.5509205288158207e-002
      1.2506850822926130e+000 4.5783208155868949e-001
      -9.9205138114692119e-003 1.6388960438868971e-001
      4.6494427096890817e-001 -1.1160004343302250e-001
      1.5748544544025359e-001 -6.2820474691947026e-001
      5.4979729960303807e-002 -2.4806916723670830e-001
      2.1027351244974610e-001 -6.2317349403051492e-001
      1.0219469319564787e+000 2.7525938231297631e-001
      9.7254601553702935e-001 7.4202666879027945e-001
      -1.6762543399123569e-001 -5.9510268860795423e-001
      8.4296321732589985e-001 -1.8161949777298472e-001
      -5.5047127832690357e-001 3.0007867387871362e-001
      5.5889915223002218e-001 7.9840720977846380e-001
      5.4515659589194621e-001 -8.4881202785403853e-001
      -1.7226951657435352e-001 3.6726293492403644e-001
      -1.2834016140746820e+000 2.5453500296059267e-001
      -8.0169181537184142e-001 -2.0060608768266760e-002
      1.2790637581258224e-001 6.1319871334728424e-002
      2.2517267037534283e-001 9.0087242649657881e-002
      5.1535993963799327e-002 -3.7647394214977759e-001
      -4.8576756727465642e-001 5.4581151490870028e-001
      5.8676323967673139e-001 -1.2080345331680495e-001
      -7.3543362660191036e-001 1.1478206975538752e-001
      -1.6973829804553635e+000 -2.7090740786636308e-001
      7.0141305039711577e-001 -2.0574191149606392e-002
      -3.7720858223258030e-001 -3.7520326399394971e-001
      2.5251540540237971e-001 -1.8241691678519906e-001
      -1.6304476700879603e-001 9.2050345489662733e-002
      1.0348419534983921e-001 -4.9845378141786950e-001
      -3.3374811101587798e-001 -6.4359040436981085e-001
      1.0695306575027926e-001 -9.8868345080086434e-002
      -7.0814059640060756e-001 5.3662701871045271e-001
      2.8457669082769937e-001 7.6338699638258301e-001
      -3.0985024991829518e-001 -3.7818662318186702e-001
      -2.5180727863448310e-001 -3.3150493888049509e-001
      3.4144625136654561e-002 -1.6304587611181323e-001
      8.4219264491701462e-001 -1.4503573290470173e-001
      -5.8358913030674109e-001 -1.1673655697298792e-001
      5.8140437647273291e-001 -3.5046845798839066e-001
      2.1796832883143979e-001 -2.6258518734982872e-001
      1.4715431446862637e-001 6.7018309125504816e-001
      -2.8252971446399794e-001 7.8099809188122526e-001
      3.0300664442158959e-001 2.5658601312005186e-001
      -6.3759143684494857e-001 3.0469736841911504e-001
      3.3546178693641887e-001 2.2607795145763993e-001
      -1.1595747318249423e+000 2.8958486806094424e-001
      -1.2766765650409659e+000 1.0814418001004886e+000
      4.8266507221903749e+000 -1.9295141025439427e-001
      -5.6152464933619917e-002 4.1945771674926718e-001
      -5.8858274002106817e-002 -5.4591744674995157e-001
      -3.2950360330760847e-001 -3.7493770926405368e-001
      -5.6880837298610687e-001 -6.6918422975499473e-003
      3.1415489789112344e-001 4.2921261521891141e-001
      -4.4164071318377801e-001 -5.0533577586446575e-002
      -7.0539970698951759e-001 1.2865842131406607e-001
      3.7268712754658915e+000 -3.2487578727697375e-001
      5.4565173781007681e-001 -1.0008159212206120e+000
      -4.5076284200043358e-002 1.5748982455360941e-001
      -5.2193350396632110e-001 -1.2000925264230888e+000
      8.7481249607228095e-001 -1.3443187646067936e-001
      2.4093704174716904e-001 -1.4602228081078190e+000
      -9.9875882731932064e-001 -1.2467663900477330e+000
      2.8612164413586333e-001 -6.7707928040809662e-001
      -5.3282369497122515e+000 2.3395434276237578e-001
      -8.3680875977595812e-002 7.8761259028210640e-001
      2.9949165792432275e-001 3.4879107254277314e-001
      -2.1820138522737148e-001 -1.0425160727311170e-001
      -3.7969483921042652e-001 4.7962796687692960e-001
      -7.1846728701261353e-002 7.0678849750712636e-001
      -3.9416639487278265e-001 2.4080404123904747e-001
      -4.5768950491172306e-001 2.5862332705425051e-001
      4.0351649835211306e-002 4.2798157127587039e-001
      -4.0600117282119062e-002 -1.4415486232061389e-001
      4.3013482579831475e-001 -8.6768573001651983e-001
      -2.2421412077714412e-001 4.0671267332445804e-001
      -8.6763209100688898e-001 2.8780452291182090e-002
      -8.1006473877604901e-001 9.6807418931223771e-002
      4.1638011554991189e-001 -1.6562085154375913e-001
      -4.7602811817747848e-001 4.4284784196434895e-001
      -3.1930935199420007e+000 5.8544710969612668e-001
      -3.7364880114079368e-001 3.8793296146447787e-001
      -2.4744817512325762e-001 4.9337648728686534e-001
      -2.2443454967496287e-001 -6.3266412945986328e-001
      -6.0412896599651966e-001 -2.0815752922490771e-001
      -2.6269611171328244e-001 -1.5393160590474597e-001
      8.0683896579419018e-002 -3.9259497075176245e-002
      -3.6964422320946372e-001 5.1121452924743893e-001
      -4.5066937752731882e+000 -2.5143253295212187e-001
      3.7565483109056413e-001 2.4424380893428321e-001
      -1.0163789375492956e-001 4.2618896944783428e-002
      2.4723832891588496e-001 -1.8590184380287161e-001
      -7.1120342204508513e-001 3.9130231940121080e-001
      -1.8627801602436483e-001 3.2498782603960713e-001
      -4.4019336914212931e-001 6.9256907333790285e-001
      -1.8599795866944743e-001 -3.4550020532003950e-001
      -5.9121911826007234e-001 6.8346082598593733e-002
      -4.0481975983436191e-001 1.7676939129402239e-001
      2.1833393732464107e-001 -1.1932865057636188e-002
      -4.7649309905776716e-001 -1.0387526354066794e+000
      -8.6952099973629654e-002 -1.5046530468820118e-001
      -2.4830507547320688e-001 4.1206031077838712e-002
      1.3756850542171514e-003 -5.7427470401894798e-001
      -1.0750340481791860e+000 1.9129435254985558e-001
      -4.2127929653643594e+000 2.2317464159253206e-001
      -9.2683728121570677e-002 8.1353833745407486e-002
      2.7503150168395030e-001 7.5468461137149001e-002
      -6.0561243879957323e-002 1.2280509284816038e-001
      7.6567857903817382e-001 2.3243491344747910e-001
      -2.3382396049625745e-001 3.5810564594115629e-001
      3.6864315940014353e-001 3.1983986588011409e-001
      1.1321831713584596e-001 4.7673156257044574e-002
      -2.8490133481912654e+000 8.7254468033531943e-002
      -2.8328833358241606e-001 8.0070958390381597e-001
      -4.9696973268715627e-001 -5.6190956498558195e-002
      6.6873720601038100e-001 1.8009958208351398e-002
      2.7962391509962953e-001 5.0644722916145198e-002
      -6.4681425872361809e-001 -3.9331497488766132e-001
      6.4237095008613909e-001 1.7601008126814249e-001
      8.1343922038376348e-001 -2.9322570475384689e-002
      -2.0959449271948536e+000 1.0630243275218829e+000
      7.8519619168092747e-002 -2.9441848037486229e-001
      -5.1132092730951884e-001 -1.0349826702662457e+000
      3.9492741774761246e-002 -4.7114821670385554e-001
      3.1792807348066082e-002 -5.4678248292128906e-001
      -3.2072070014274590e-001 -3.0179944478072135e-001
      2.5818760976248800e-001 3.7137218713316644e-001
      7.4847950242784633e-001 -2.0472590403727348e-001
      -2.2334191877199263e+000 6.9127666106633756e-001
      -6.0234695660339044e-001 -7.5087946483456680e-001
      7.4130679062122146e-002 2.6843186174946698e-001
      2.5010750387150127e-001 -4.4076502917468280e-001
      1.5311868784726584e-001 -7.0840820475174915e-001
      -1.1119640608906698e+000 -1.2837706378483324e-001
      -5.1693897253714050e-001 6.7211740436629930e-001
      2.8640637228441651e-001 -4.5596540425218363e-001
      -1.0307869249343076e+000 -1.8350814630958806e-001
      7.0398525753933433e-002 5.7871423425494950e-001
      -7.5416243108516095e-003 -3.7634042644750282e-001
      4.1941135541570002e-001 3.5158955830351307e-001
      5.0036424872502927e-001 4.2484148208925870e-001
      1.4754066611764025e-001 6.4592286436286714e-002
      -1.6533961123252724e-001 4.2153356521112489e-001
      -1.9737937417747217e-001 3.5998402303716409e-001
      -2.3392022533370525e+000 -4.9104650832025876e-001
      2.2363160007934019e-001 4.6548533130475744e-001
      -4.0642529263594940e-001 8.9169866583274179e-002
      6.1349108917012662e-001 -2.2127921483672541e-001
      -2.1204650758267943e-001 -3.3126644321099291e-001
      7.0676347166133346e-001 -7.4428761233641527e-001
      -2.2093189985630637e-001 -2.8217768206854288e-001
      2.3944043960416531e-001 2.4174617001523790e-001
      -1.8405244056032119e-001 7.9285517862386246e-002
      -3.0886397210827343e-001 7.0198475057676646e-001
      -7.6302909312619482e-001 -1.1110720804556687e-001
      2.4220048311092135e-001 4.2650998230358472e-001
      -8.1064650104011193e-001 -5.0508025862408279e-001
      -3.3196553496838760e-001 5.1201335951184722e-002
      3.6739161957914174e-001 -1.0269610993739918e-001
      -2.3632882586063320e-001 1.1120472489126214e+000
      3.5070644089147383e+000 -8.8069638432929565e-001
      -5.1623033364262313e-002 1.4961290467159635e-001
      -3.3081285885875911e-001 -1.5994519890161540e+000
      -7.1027420379249284e-001 9.9250103975203507e-002
      -2.9837519600865692e-001 4.4801427029071544e-001
      -8.2337248404951668e-001 2.7236768160984326e-001
      2.6618768143108190e-001 -3.2772117453301219e-001
      -2.0725112203541729e-001 8.0224318543474493e-001
      5.0281934937795576e+000 -1.5303507600765395e-001
      5.6737849274016450e-001 1.9832821915813653e-001
      -1.5964505665659159e-001 -2.2415289947714596e+000
      -1.8064329379422553e-001 -1.3501920762853821e+000
      -1.3680432288296654e-001 -1.1563105846955869e-001
      -3.2687871105631222e-001 -1.1321319612970022e+000
      -2.7886255249881425e-001 -8.8817192278620494e-001
      3.2748494738412987e-001 -1.9430289065727160e-001
      3.9633963939358035e+000 -5.3372546444392557e-002
      2.9836317139605012e-001 -1.9249860983191408e-001
      2.2627389051418140e-001 -9.5963787639210141e-001
      2.3640439594939089e-001 -7.7623522940364220e-001
      4.8324015479023652e-001 4.2303796464750125e-002
      -2.1182766855030885e-001 -3.7195763225294304e-001
      -7.4725078869247896e-001 -4.7171592057121337e-001
      2.7096660407764989e-001 -7.0371291864099766e-002
      1.0721090720286876e+001 8.2012649676646454e-001
      1.4416610035830422e+000 -3.0380167426114215e+000
      -1.6643987463511009e-001 -6.6408623387133170e-001
      -7.3770656390163808e-002 -1.3059863799911695e+000
      -9.2363250889114035e-001 -2.3345041370966420e+000
      -2.5861313991724461e-001 -2.4092052254302363e+000
      -9.8827280747439489e-002 -1.3788078378938007e+000
      1.2163932298187836e+000 -1.4797517146269414e+000
      -4.1387549876065286e+000 -4.2641404541714410e-002
      -5.7904299885937205e-001 2.1145113883834865e-001
      -3.5498739254096245e-001 4.6686270343323510e-001
      -1.2327589228865905e+000 6.4479491235879183e-001
      -6.0265146835694616e-001 -1.3288915416986163e-001
      -2.3734034087374631e-001 8.3893518284856972e-001
      2.1845358764214822e-002 2.6998549281820688e-001
      -1.8845750635206107e-001 3.5928359414434480e-001
      -6.9326765735263063e+000 -1.4564802215238559e-001
      6.8445957875616370e-001 -5.0116551022677214e-001
      6.4329512239844355e-001 6.3169971937534364e-001
      -1.0238965201859660e+000 1.9765905758769572e-001
      -3.1543277433601785e-001 9.4770302669590342e-002
      -1.6426634293424017e-001 6.6129819945321955e-001
      1.9862027215821998e-001 1.3603140906740883e+000
      -3.8748889996668268e-001 1.8067033366931473e-001
      -2.4590616408505062e+000 1.6129344447719954e-001
      3.6479315736558171e-001 -1.8752131663498978e-001
      5.1942623949340394e-001 -5.6223781057453093e-001
      -6.7191803980356957e-001 -2.3450688078361001e-001
      -6.4057033872136426e-001 -9.3661706947733125e-002
      -6.4827521245002850e-001 1.2969598470040219e-001
      -2.7401340089399776e-003 -2.0903739720117809e-001
      8.3257583931288015e-002 2.1500192562965978e-001
      -6.1532928256025965e-001 -1.9555312569520725e-001
      -3.7911226026862095e-002 9.4521918745238875e-001
      6.8443910092293481e-001 -5.8688621775793030e-002
      -9.0645581388750385e-001 7.6266707945897483e-001
      -4.1737886431708937e-001 -3.9410442369548021e-001
      7.9880022725465669e-002 9.5829062293612455e-001
      -8.5015204945034639e-001 3.2977647246974306e-001
      -4.9234959563835903e-002 4.8047236436407535e-002
      3.3115700665610546e+000 -1.0715205886929358e+000
      1.1657189066329210e+000 -4.4213513394805437e-001
      9.8940508217284895e-001 -6.5850003461850282e-001
      4.0948246812622485e-001 6.7487566661670911e-002
      -2.6206536885393783e-001 9.5527141277265193e-001
      4.0197515147536472e-001 -5.5495988840069832e-001
      -8.2746449219759211e-001 6.6235485732908050e-002
      4.9115619858817677e-001 -1.1250351343693519e+000
      -1.2113309578815514e+000 -2.4708714411860397e-001
      4.7927643857132329e-002 -1.3700376485359927e-001
      7.0817924431811818e-001 -4.8262209746822027e-001
      5.2424855758837145e-002 -1.7739380207335027e-002
      -6.7468316795039296e-001 2.8309393924196169e-001
      -1.2810101939573743e-002 -1.3643081370952384e-001
      2.9604558338435011e-001 2.6820511589407490e-002
      2.1089578240660986e-001 3.9516799531328001e-001
      -4.4495875062912099e-001 -2.0999735325836891e-001
      1.8976582811132026e-001 4.5751573900691644e-001
      4.1356423316187901e-001 -3.2609203241013784e-001
      4.3307987617940580e-001 2.6880599339109501e-001
      -4.5476795397720193e-001 3.3390713300380076e-001
      3.7981326096063472e-001 2.4775070087517637e-001
      -2.1727906879771122e-001 4.4565623304872842e-001
      -5.6607035043878051e-001 4.0253285077476642e-001
      4.6550662938216876e+000 -4.3748855842323714e-001
      -4.5530769428406059e-002 -1.0123777906899584e-001
      6.5404542656818898e-001 2.9916489383956701e-001
      -8.8922677638541961e-002 5.0151705653543888e-001
      2.5801580801163115e-001 5.3542024787648967e-001
      -5.6874446219588995e-002 3.6995570525278805e-002
      -3.2446681640263431e-001 2.3157831896923661e-001
      6.3932293107649585e-001 -9.5532472505179739e-002
      5.3923387829769096e+000 5.6778182309132830e-001
      1.0975600638388998e-001 4.3866513481841174e-001
      -1.8997082421748490e-001 -1.9359350543555007e-001
      -9.0775695288292921e-002 8.7609814995365909e-002
      7.3181712706028035e-001 -5.2666944600340992e-001
      1.0197451338097152e+000 -2.4451449817287199e-001
      2.9301792878750293e-001 -2.7096789465738691e-001
      -2.2573167757818877e-001 -2.8557600014983509e-001
      7.6684682277223235e+000 2.6461515692188059e-001
      -3.7384582935338567e-001 5.2588566401624870e-001
      1.0291949508543806e-001 -5.8363029426798529e-001
      -5.3085539561521411e-001 1.0954358641652877e+000
      1.2211585940747693e+000 -4.0293944702567047e-001
      3.7698046492549447e-001 -3.4761969694929812e-002
      1.1590232365006210e-001 -1.1984732075241302e-002
      -5.7528019718632202e-003 4.3611031675515649e-001
      3.6320792121867003e+000 2.1223340546781383e-001
      4.3187750663391711e-001 6.8823492628664595e-001
      -5.1111962128652655e-001 -8.0524716425287679e-001
      -1.0354387587666496e+000 1.7431026607616956e-001
      2.2939677984736345e-001 -1.2282259643257261e-001
      -8.7904961657725378e-002 6.9716090256850535e-002
      4.7506306848958119e-001 -2.7591714269679590e-001
      -2.6350568060897805e-001 -3.3258575450314826e-001
      2.3450878118401612e+000 -5.8436331073529735e-001
      4.5542031207948069e-001 3.1189496527498312e-001
      -8.0635028423800581e-001 -1.0045771117447457e+000
      -6.7536384823935502e-001 -1.4840628733821084e+000
      -8.5013468720972063e-001 -8.5075023508947478e-001
      -2.7777355295889344e-001 4.3448824126657425e-002
      2.1243727719637709e-001 2.9454614853427513e-001
      -1.0967106421376753e+000 9.4927705946758356e-001
      2.3680503370089863e+000 6.3082495633233915e-001
      1.5577351022146843e-001 4.3562551458628626e-002
      -1.3063186743308273e+000 -3.2606210176848921e-001
      3.9557083357343542e-001 -9.7172468687771185e-001
      -1.1922135313423869e+000 -1.1840120409899146e+000
      -2.0039122101342419e-001 1.7959321484443541e-001
      5.8709792542437522e-001 -8.4302718271941524e-002
      -9.6002326715413111e-001 8.8366068286684685e-001
      2.2592218579177588e+000 5.8701408284100143e-002
      3.4766396796552407e-001 -5.1235453905349537e-001
      -6.3283461259247820e-001 1.6748749437286159e-002
      -1.3428290817375044e-001 -6.3002922282141471e-001
      -1.3085230064689133e+000 -1.5023314077499406e+000
      -2.1677891486595097e-001 -6.0427769178506552e-001
      1.1840620117983645e+000 -4.7052431929326094e-001
      9.5073891725666715e-001 1.9959330623712435e-001
      9.7790770878883908e+000 -5.6838312427839122e-001
      1.2065668713481326e+000 -1.0269451024550456e+000
      -3.7426576628727043e-001 -1.2094193836844298e+000
      7.6685583854790329e-001 -2.6359942004870429e-001
      -1.1983285617488677e+000 -1.1131120331856137e+000
      2.4441146684423282e-001 -2.0873088077742924e-001
      1.0599584755579605e+000 -3.7866442379821741e-001
      7.0452465548524101e-001 -2.0239599587125542e-001
      8.2504583468015564e+000 4.3686534983344030e-002
      8.1287614621916071e-001 -5.8894468512356835e-001
      -8.8364239802474220e-001 -2.2102738985730164e+000
      -5.2419867820335553e-001 1.8832575498282639e-001
      -1.7477779051047442e+000 -2.9582995878251537e+000
      -8.5236297385221138e-001 -1.0239943772336549e-001
      -7.4849508742821058e-001 -1.7579174162735529e+000
      5.2299126499020154e-001 2.5537232766572365e-001
      -3.1072199750128258e+000 -3.0744577100144421e-001
      9.0059126993732239e-002 1.5143341930829504e-001
      -4.0840263519413056e-002 -7.8309067805716759e-001
      -8.0002259340098436e-001 1.0269317774792955e-001
      4.3242557596885632e-002 -2.0797834797370604e-001
      1.8942987444995832e-001 2.5120685648055396e-001
      -1.4876102479926798e+000 -4.7180143506263045e-001
      1.5285621816387965e-001 7.8002143522830955e-002
      -6.3364322535929869e+000 9.3443597726854899e-001
      -1.2900507334286532e-001 -2.1202110508554237e-001
      2.7032585613479582e-001 3.3967161608174101e-001
      -3.6871233908646578e-002 -6.4286064329013626e-002
      7.0872945009625363e-002 2.9885603555196727e-001
      6.4010130547309169e-002 3.4236885698813607e-001
      2.7498336686324165e-001 -6.5811194906605808e-001
      2.1795628924931584e-002 -1.1522255150760399e+000
      -1.2342235541346642e+000 -2.9714269286726321e-002
      5.9988806673013217e-001 3.9117070023623901e-001
      5.0410820708422421e-001 -3.1424972847780475e-001
      -3.2315958384515109e-001 6.1508509712314863e-001
      -2.5317000061255251e-001 9.9162470935085301e-001
      -6.0436688366110469e-001 2.7899120289667989e-001
      -6.6000195874455325e-001 6.6335822839144742e-001
      -1.5815322338806106e-001 -5.8629226371111054e-001
      -6.7102165006089720e-001 3.1871053351505940e-001
      9.8063008469664736e-001 -8.6121453622204580e-002
      5.7311546295186067e-001 -6.1093674677290995e-003
      -3.4916552744860679e-001 2.4495649662825117e-001
      -1.0113124061621763e+000 2.8292301501060224e-001
      -4.5528283192150992e-001 -1.1403804955775640e-001
      -8.5096599367521519e-001 5.2687416412684381e-002
      -1.7174570657993704e-001 4.9543227270958923e-001
      -2.9023292376436838e-001 -2.4514290176273448e-001
      4.4859937034324004e-001 -5.4442295222068837e-001
      3.7073620700498472e-001 -6.5166782804295720e-001
      -4.4015772631532213e-001 6.7623108680989874e-001
      -4.7417975213566044e-001 1.0214965249796812e-001
      -6.4802231580186220e-002 6.7371195963162456e-001
      -2.9944477457165231e-001 1.8522499847002841e-001
      2.9591732644379082e-001 -6.6140494501016189e-001
      3.5405191554126190e+000 -4.3249935270746595e-002
      -2.8462427437046182e-002 2.9569542479935510e-003
      1.3147585369243975e-001 -2.4685500206454458e-001
      -1.0560943408171923e+000 8.8244542374470236e-001
      -9.5724332797079292e-001 3.0832205757700953e-001
      -6.3925700327074453e-001 1.1433487227666222e-001
      -3.7110044772480599e-001 -5.3210185098146061e-002
      -9.2422362951820269e-001 4.8863289590023656e-001
      4.4773933422946168e+000 6.7092396750333205e-001
      -8.1519074816858078e-002 4.9762059061415599e-002
      1.9501199251658993e-001 -9.6658059271077248e-002
      -4.4277851766545956e-001 7.7311700374033920e-001
      -3.6219581836551551e-001 2.5392970766963496e-001
      6.3407206776423808e-001 3.1318352585555409e-001
      7.6633010530148693e-001 -2.4532409467059080e-001
      -5.2134988036845620e-001 4.1902324969645764e-002
      4.0725159925195502e+000 1.9734838517040140e-001
      3.6122791172561168e-002 -1.1738800019163996e-001
      6.5341719475440529e-001 9.7068557047377946e-001
      -5.1902618823209672e-002 -7.5316986206849609e-002
      -3.7871473199341837e-001 2.0220805481035711e-001
      2.3699456236912947e-001 1.0027879756219486e-002
      8.0359139804099722e-001 2.5804787737509738e-001
      2.9872126170856816e-001 4.1610749722970691e-001
      5.5128094578220717e+000 5.6081901275258284e-001
      -1.9200398207424954e-001 -4.9631541278917185e-001
      7.9031849006272215e-001 -1.0715155417684009e-001
      -2.7939964768270981e-001 5.4582162618920704e-001
      -1.5739707518188376e-002 -8.3816084722355647e-002
      -5.9713971764691542e-001 -2.1411768738175607e-001
      1.8628273063068529e-001 6.5707538264089771e-001
      -1.3432578854241248e-001 2.0076576067450522e-001
      3.3646837924417694e+000 1.9422666902456118e-001
      -6.9074658576825332e-001 -5.6242280653652527e-002
      3.4273066598346941e-001 6.0548600362923433e-001
      -3.6394296759386124e-001 1.6748799358337993e-001
      8.2912888155632347e-001 9.2682104323567771e-001
      -1.7630335081896426e-001 1.9556120620317785e-001
      7.3505703114743548e-001 4.3831506475134413e-001
      2.1413023663449379e-002 6.0982439311304100e-002
      1.4604556951918983e+000 5.0245980901402221e-001
      -6.1437831777201923e-001 -1.2553258761811889e-001
      2.7162776886093448e-001 7.8506143494005864e-001
      -6.4043258829155369e-001 9.6538212107950017e-001
      1.4563655347397721e+000 -2.0015273298905997e-002
      -1.0018122492717554e+000 5.0870022460708608e-001
      3.6688306247640573e-001 2.2757514048291086e-001
      6.6667277619632903e-001 -3.4055685213973880e-001
      -3.0087210012876224e+000 8.9672309598795630e-002
      -6.3481897735263781e-001 -5.0620930791633267e-001
      6.1590484395334467e-002 8.6383894702516839e-001
      -1.1118299211518820e-001 -1.3213243616397746e-001
      6.3130478332378070e-001 3.1784928774667770e-001
      3.5723722155321025e-001 -2.7935843914320047e-001
      4.6025416014461701e-001 4.8984519503168544e-001
      -5.1245400982712491e-002 -2.1868227547880267e-001
      -2.4730113789178816e+000 1.1784482761393282e+000
      -7.1520803638869956e-001 -1.0476989337586939e-001
      -4.3147110009044043e-001 1.2056459012784315e+000
      5.7267769218134167e-002 -5.0051006249503549e-001
      7.0023103148675847e-001 -7.3447957552784571e-001
      -1.2698557659670764e-001 5.1594812239707549e-002
      1.8254792983027632e-001 -4.6797355059549001e-001
      -7.0943033645123499e-002 -3.2058605879181895e-001
      -2.8651258630339798e+000 8.9770806773368877e-002
      4.6754778659750207e-001 -7.8890231598753424e-001
      -3.9334252502905542e-001 6.0773837997197866e-001
      3.1876088921639556e-001 -1.9927242615281260e-001
      5.7501647185380693e-002 -6.0274375699637917e-001
      1.6087836144549131e-001 -1.6071347551030086e-002
      6.8881775907206022e-001 -1.3092840520529359e-001
      2.0392681738902135e-001 1.3263206259942012e-001
      2.6157924863899251e+000 -1.8118168855120171e+000
      1.2520276799127832e+000 -7.0440593301301824e-001
      -1.4158942229255506e-001 -1.3289439466276449e+000
      9.6529151199761531e-001 1.6982288818032526e-001
      -1.1356968642512804e+000 -2.4838178070344338e-001
      6.3724929926918350e-001 -3.5326196196229365e-001
      -1.1973431120351445e+000 -6.3962627446443177e-001
      6.1496826990517139e-001 -6.5880865109938669e-001
      4.2936132215393092e+000 -1.7322408672597709e+000
      1.7715690396540664e+000 -4.6549886834501258e-001
      -1.1975431280757403e+000 -2.4401951038988496e+000
      -2.6115421936289740e-001 7.9148180160483021e-003
      -1.6521380425081260e+000 -1.0707898035751631e+000
      3.6607408394413565e-001 1.5025631009853263e-001
      -8.5624491448405027e-001 -3.0982121344665348e-001
      1.9926651947536422e-001 2.6604222997432819e-001
      1.7124466824157771e+000 4.0554715535287422e-001
      8.5363353355432884e-003 -5.4305888319925555e-001
      2.2360852714922286e-001 -6.4658398479641543e-001
      -5.4960689285778830e-001 1.0577964463807452e+000
      -1.6248803139320547e-001 -7.4669617886518624e-001
      2.6477889383193509e-001 -2.6855221109449051e-001
      -1.7222785470180230e-001 -3.6488264698061162e-001
      4.5729102716913250e-001 -5.0556196134624221e-001
      -1.2929781486714318e+000 4.6756381040161632e-001
      -1.0066765446593817e+000 -9.7201337944681457e-002
      5.5055920890350174e-001 -7.5562823827630110e-001
      -8.6198681946931843e-001 1.6236533410225973e+000
      2.6058583804095725e-001 3.7890317344696739e-001
      4.4852008847565189e-001 3.0701989962952214e-001
      -1.3569607750511536e+000 -6.2003678398508943e-001
      7.9205433580908835e-001 -8.5640954220572962e-001
      1.4338089520197783e-001 6.0386881381762358e-001
      -4.3213111698466311e-002 9.8212489102491207e-001
      -7.2649479845161458e-001 -3.6658325990161833e-001
      1.8592520982067232e-001 1.8810246382653684e+000
      6.3317528047127969e-001 5.7792174427329890e-001
      8.1064509412187868e-001 6.0039564174847759e-001
      -1.9717887431148526e-001 3.8298068435980721e-002
      -1.9824015519064783e-001 -4.7330899007167893e-001
      -1.8684412507136157e+000 3.4325581423810952e-001
      -9.9850629621467835e-001 -1.3243327873676961e-001
      1.6145110577591076e-001 2.0453165529485648e-001
      4.3505063668783245e-001 1.7206475448609488e+000
      3.1522048124528906e-001 7.1346019360585944e-001
      -1.1045867080521937e-001 6.3943534158212378e-001
      1.6202414137096025e-001 -1.7603436961953650e-001
      1.1331343621548713e+000 8.0824760723656866e-002
      -7.6449497912452080e-001 2.3496129747790470e-001
      7.0830741686411203e-001 1.0328651041693521e-001
      -3.2859513291814232e-002 2.4074966173435081e-001
      -1.9463032453853604e-001 1.2524140917754123e+000
      -4.6593855791995020e-001 2.0622668995367688e-001
      1.4204882847703133e+000 6.6673131610401293e-001
      -4.2372741402208575e-001 2.4299672098320116e-001
      3.3779854536589410e-001 -8.8472086479378015e-002
      -3.9624238643369386e-001 6.0247912239803181e-001
      -2.7838126917428735e-001 5.3322854265270248e-001
      6.1064993184120153e-001 8.3935931039673028e-001
      -8.1980344333237920e-001 1.0728156276537599e+000
      -2.4006074997849419e-001 5.2117197891177536e-001
      3.0408013804866796e-001 7.0259669123186574e-001
      5.4213837671433771e-002 2.1521195174795615e-001
      5.5148214380001681e-001 -4.3785064068468216e-002
      7.1379424236927991e-001 1.1421845936682731e+000
      2.9505149148450573e-002 -4.4229996995919764e-002
      4.6717194202414519e-001 1.5628347029598162e+000
      -1.2231503220281792e+000 -1.5081081215675793e-001
      -1.6065153316712368e+000 -8.4316164054939080e-001
      -1.1855660330389193e+000 -4.6765115014242215e-001
      3.3112990094751771e-001 -6.3707678106763421e-001
      6.3499418160676613e-001 -5.0222828648408435e-002
      1.0000505422630483e+000 2.1878737646673929e-001
      -2.9901246141227361e-001 2.0422280248019556e-001
      8.6739856895525225e-001 8.3742932491567423e-001
      -3.1016856833002537e-001 -2.1814590113110904e-001
      3.3647005512122113e-001 2.8256002395609431e-001
      -1.0253786521399368e-001 2.9223438024177301e-001
      9.1825977065497710e-001 -5.6568681331076365e-001
      -1.1076479293058109e-001 -9.2218427853590790e-001
      3.2879316033377419e+000 1.4376361130607869e+000
      -1.2184576640599139e-001 -1.7599952629073259e-001
      -8.5281207319797825e-001 5.6844651494986509e-001
      -4.7008382302173046e-001 -9.9816282963438896e-001
      3.4428321981871202e-001 -1.2457302145877618e+000
      -3.9014639109296617e-001 -8.8300338936152536e-002
      7.2745358214326028e-001 -1.4854483849000066e-001
      -5.3593990166492123e-001 2.5850087858334470e-001
      5.5715853719655950e-001 3.7062835607863009e-001
      -2.7637590302099674e-001 -9.1741108081425868e-002
      -1.0537062609798135e-001 8.4615583940161743e-001
      4.8236087811330364e-001 2.8272222525566393e-001
      -5.3736002101549474e-001 -1.8253326572817608e-001
      -1.4967473954887407e+000 -2.5835072212604129e-002
      1.8749401532659049e-001 4.1249873522590669e-001
      -4.1880018278805159e-001 1.7321748201662604e-001
      -4.1851371430518496e+000 7.3848799739244586e-001
      -9.6715110177101327e-001 -1.0139322901709718e+000
      -1.7944342254708087e-001 6.5578792043564282e-001
      5.0848839244658295e-001 -7.2599138493426307e-001
      1.5124095389710787e-002 1.9797139255157281e-001
      -2.9437148250642076e-001 -1.9024217935806303e-001
      4.6059573620574007e-001 5.2204914273598968e-001
      3.4468237724028383e-001 4.9719542432752650e-001
      -1.4455389143754516e+000 -2.6740699473801161e-001
      -6.1891582073480469e-003 5.8401285287509019e-001
      1.5579771418823368e-001 1.9597640796886476e-001
      -6.2021143740105711e-001 -2.0545096698946586e-001
      7.4481445851768857e-001 4.2271454899298727e-001
      3.4637878327524835e-001 3.2026331994526569e-001
      3.6156916838427627e-001 -4.4582776711451166e-001
      -3.2076411593338070e-004 1.5524475625472259e-001
      -1.8956523395545493e+000 -7.0134231796845092e-001
      4.4300178413586883e-001 -4.4509995487602760e-001
      6.6374685744203388e-001 -8.2907403870223950e-001
      -7.5672847766784801e-001 5.9237940279466794e-001
      4.3782390941415494e-001 6.6682321753705343e-001
      4.8532522143104456e-001 7.0451738815412590e-001
      -1.3385193011693383e-001 9.9380613627601244e-001
      2.5879857768041281e-001 4.0291401002830746e-001
      -2.3589682542992838e+000 -3.6650554469503965e-001
      3.5197057850104868e-001 -3.1745938077920083e-001
      7.8763630540928620e-001 -3.8134849837093415e-001
      5.2293397797666466e-002 8.0080476061736539e-001
      6.2605535065087015e-001 3.6055436608658087e-001
      6.5439975036389841e-001 2.7241755767069459e-001
      -4.5058814404539016e-001 9.9090939792032290e-002
      1.0620931520067524e-002 4.6615003612232489e-002
      -7.6081570548560764e+000 -1.3082364353610914e+000
      6.5486729014629974e-001 -3.6073187957807978e-001
      2.9129506730648330e-001 -6.3394066682944372e-001
      -8.0636817605684405e-002 -5.5375566829067446e-001
      3.8788344356555066e-001 5.1312028113597252e-001
      3.7477604765664913e-001 5.5482710462964713e-001
      -6.4350322496747964e-002 1.3759976612311889e-001
      2.0143310863532563e-001 -2.0154958054456526e-001
      -5.5629359580573192e+000 -5.8433667418189550e-001
      1.9115476734746817e-001 3.6562318776775016e-001
      -1.2241255284494061e+000 -1.6947432577384087e+000
      1.1898154878107284e-001 2.0870175370182533e+000
      -1.7303077687823756e+000 -1.3628911012112084e+000
      -5.4016976392778648e-001 1.1380717854144147e+000
      -1.6405350304070141e+000 -3.3662446510107569e-001
      4.3826631503480240e-001 6.9463032729174123e-001
      -3.2523221491270555e+000 1.4425516418589079e-001
      -5.7100113681725535e-004 8.4871080371490659e-001
      -7.0801089223046954e-002 -5.9676715517748802e-001
      2.3539388295138688e-001 1.0184603195407875e+000
      5.8821665127399902e-001 5.9432466216029056e-001
      -3.5912990462558325e-001 -9.3652852559131516e-001
      -6.1464836419889379e-001 4.1329218261537992e-001
      -5.2695357484372440e-001 -9.6775235594928977e-001
      -1.2897122532772296e+000 3.1755475260991439e-001
      -1.9904289065307057e-001 2.3605090233834661e-001
      2.3887677445130706e-001 -6.4923221501578909e-001
      8.6570555049229603e-001 1.0727931775384114e+000
      3.5998355966292378e-001 -1.9141382728215728e-001
      1.3907547995925487e+000 9.2963119333975913e-002
      3.2071473313557897e-001 -7.2506382240625544e-001
      1.3640853344855028e+000 1.4532819872084390e-001
      -4.2038206074038866e+000 -8.7829481762524564e-001
      -5.8061264679351232e-001 7.1340379838326895e-001
      -9.0676341812139599e-002 4.6353258319518748e-001
      -1.6398165819242075e-001 1.7179589267513347e+000
      2.6055137809854706e-001 4.2262244699661594e-001
      6.6955034583178086e-001 -2.8933774983209481e-002
      -7.0727554389570446e-001 -6.0317348800044590e-001
      9.1976225973971837e-001 -2.2101956277357376e-001
      -4.2308169384158143e+000 -4.5224879242639848e-001
      -1.1827259502830294e+000 1.0747124175064898e-001
      -1.1354435459647629e+000 1.0216798170732981e+000
      -6.8540311878698601e-001 2.2818479194322921e-001
      6.5425582792433024e-001 -6.0785703160914206e-001
      4.3324639508607217e-003 6.3717889115201232e-001
      3.9239430512446066e-001 -2.1425728454032855e-001
      4.6838537536673963e-001 -3.3186930889265404e-001
      1.5878901465903275e+000 -9.2643886980704970e-001
      -6.1047931864701821e-001 8.2216487796187199e-001
      -2.1885808258986897e-001 5.4572256755552839e-001
      -1.6506069998718840e+000 7.3959222751215026e-001
      -3.1241926138531373e-001 -6.7048323500942442e-001
      1.0409787527891361e+000 8.7059144499797111e-002
      -7.7169705876265893e-001 -2.2955847331556939e-001
      6.5184536350732000e-002 2.3489570654035610e-001
      1.5072400368439347e+000 5.4345494555691132e-001
      -5.4086889026519114e-001 8.0538954328760004e-001
      5.3682162023515601e-001 1.2499349315968749e+000
      -9.9730177898743455e-001 5.0604753631216925e-001
      7.2153806740369264e-001 -3.4022764287013202e-001
      -2.2792677137203446e-001 -1.1460356010980099e-001
      -4.7840377703926629e-001 -1.8992463282472857e-001
      2.7678529454865258e-001 -3.1431439189743593e-001
      7.2451475997715242e-001 -9.7450161988291639e-001
      3.4985644990290783e-002 -1.1283085815305102e-001
      3.4342432094907721e-001 2.4253940686903272e-001
      -6.9928151167324082e-001 -2.9423408023836145e-001
      6.0672966224704569e-002 -5.2568454787253993e-001
      -1.5168903908421130e-001 -1.0478657245410259e+000
      -7.8247060365170851e-001 -4.1435487825488826e-001
      1.0285831551425552e-001 -8.0852280636863658e-002
      4.4794195830285934e+000 4.8191363278132349e-001
      2.2111491619281488e-003 -1.7051694036096739e-002
      -2.4591072318994042e-001 2.4499076269524461e-001
      -8.1111025621491373e-001 -6.0033234369061683e-001
      -3.3469823470079796e-001 -7.2552902325605051e-001
      -7.2602448740923164e-001 1.6182112800256276e-002
      -4.4721197194600187e-001 -7.2026038283226168e-001
      -1.5281258573107795e-001 1.6626933793372933e-001
      -3.2326475650605113e+000 5.4619086029243080e-001
      -3.6134494606484852e-001 -5.0662818547060229e-001
      -9.0976487903401815e-001 1.3098169371527331e+000
      -3.4628794979483768e-001 -1.7039686103693688e+000
      3.3623680345580137e-002 -1.9940610267805161e-002
      -8.9218216262247996e-001 -2.8915870526342265e-002
      2.9161386657481209e-001 9.7663003436561077e-002
      -8.5987042454581308e-001 2.0258529805959574e-001
      5.3243845959446076e-002 6.1650717229920582e-001
      -1.2896888108532026e-001 9.1925376387333974e-002
      7.3065500220719004e-002 1.0846528911759492e+000
      -1.7992687384507350e-001 -4.4843181687567052e-001
      2.5293937785693499e-001 -6.1484388033282500e-001
      4.4637462895248875e-001 -9.5821348050178889e-002
      5.4020273959431797e-001 2.3567690270849945e-001
      1.5395651396130353e-001 -1.8415105363899434e-001
      -9.4512859635048324e-002 -3.5065031803436075e-001
      -2.5878166381416584e-001 -1.0623213960411382e+000
      3.9262471880678418e-001 3.7751225897906354e-001
      -1.0328591202048307e+000 -1.8060216806930274e-001
      1.4555117706385318e-001 1.5727132002595737e-001
      -9.0002725251663279e-002 -2.0969223867619954e-001
      1.3504833327120500e-001 2.7739247950056106e-001
      -1.9933848207967889e-001 5.0733266367124170e-002
      -2.4385630489295451e+000 1.5861296058840446e-001
      -1.1354534492173791e-001 -1.2094722532627696e-001
      7.6418631532200976e-001 1.5005706972243149e+000
      -2.3748635403569976e-001 1.9262420825434667e-001
      1.2735317934618853e+000 5.1388023580150854e-001
      1.4778312037636096e-001 3.5324163057149477e-001
      6.2326412015230193e-001 3.4222003062547623e-001
      -1.1213354486348201e-001 -1.8196881684563510e-001
      -2.9526895306864205e+000 -2.8937426478060718e-001
      -4.9223040752266811e-001 -2.4819056615281304e-001
      3.7116998144666402e-001 -4.1166691224157148e-001
      -7.1585404349598925e-001 5.4653024328370980e-001
      1.3636628975215048e+000 1.7771086606383771e-001
      4.7285486362413416e-004 3.1312838530338127e-001
      6.9135571503586235e-001 4.1019639378578698e-001
      5.3891467584733288e-001 1.6003910543728340e-002
      -2.2664226794305780e+000 5.1229437735541720e-002
      2.1538916134677111e-001 2.3410217522569801e-001
      5.2256383077084223e-001 1.6389636327948842e-001
      -5.6689542928927683e-001 6.4615303146018599e-001
      5.0614342349292052e-001 -4.1477150090994029e-002
      9.4074711741606165e-001 1.4644898522424349e-001
      -4.5852248077473257e-001 -3.6271193237105798e-001
      4.6091279143757619e-001 -9.1903212047130228e-002
      -7.6637241214904588e+000 5.5272806890420179e-001
      -7.8842992957540448e-001 1.4459151333692275e-002
      -5.6207743323381931e-001 -5.4596361768072454e-001
      -5.7026533608911090e-001 3.5547955791645813e-001
      -1.7640309657394895e-001 -3.2232078198854475e-001
      -5.5924463944368774e-001 3.4662364107034399e-001
      -1.1100046768681389e+000 1.2155838374165040e-001
      5.1037246274920034e-001 -9.8823573571213907e-001
      -6.6191001498720636e+000 5.8744773471295808e-001
      4.9709299003312224e-001 1.0984597011496346e+000
      -5.7877140744531541e-001 -1.1081518034083753e+000
      -5.8572824714686292e-002 1.1431375572119478e+000
      -4.0048784376068974e-001 -6.1655523370100063e-001
      7.7166962647398041e-001 5.4678223269917510e-002
      -1.1644490140294310e+000 4.8073583921737800e-001
      -1.6255499408235814e+000 2.1821006939063006e-001
      -3.2963276667263917e+000 -5.9386344368324961e-001
      -2.7772728391928042e-001 1.2878744997204676e+000
      -3.8840735992259179e-001 1.0890465391878428e+000
      2.1950892075829995e-001 1.0429067947547865e+000
      5.5442579901287803e-001 -9.8100947241874237e-002
      1.4463211393247040e+000 -7.4086714366661788e-001
      -1.6183349641921967e-002 -9.4906218567311118e-001
      -1.4522206611835313e+000 9.8991264924535027e-001
      -3.8020512744238277e+000 -1.6951494311407995e+000
      8.1388264661253495e-001 1.1577802495913818e+000
      1.0213079813133758e-002 2.9742310992903936e-001
      3.7898621549530176e-001 6.6535535625857045e-001
      8.0586610893012867e-001 -7.3169385147499252e-002
      2.5663558822319668e+000 -1.0228208746836667e+000
      -3.7487012571068656e-001 -1.2060310093743289e+000
      -9.9952638488095868e-001 4.1370078770332847e-001
      -3.4844673010857448e+000 -1.4520775447755196e+000
      -1.1543738934270742e-001 1.4973944889812445e+000
      -3.5153943062933779e-001 5.7299493147945535e-001
      2.5514370947323073e-001 -6.7666009554132145e-001
      5.1117111645289715e-001 -6.7689770363043167e-001
      3.4108607954040726e-001 -1.2334844752011731e+000
      -9.3459296430274796e-001 -1.8020249498150578e+000
      -1.9945363223038526e-001 9.1998995383960391e-001
      -7.9896616698950818e-002 -1.6671349779593054e+000
      -4.2653713476361144e-001 1.0641601362745789e-001
      2.0441790515289540e-001 6.8608922723853538e-001
      -1.0145259705822047e+000 -3.0326088503961990e-001
      4.0529923909703475e-001 2.1219663523222329e-001
      5.8906125505846407e-001 -6.9813365046475995e-001
      -8.5519383805177385e-001 -3.6707633318712402e-001
      -1.7364910259403727e+000 -3.4487176224963917e-002
      6.2866654503890540e-001 -4.0485673858623544e-001
      -4.6735730256209546e-001 3.3070672848124028e-001
      -1.8105484872093966e-001 -3.9196373499839249e-001
      -1.0513799349073152e+000 3.1796955823144873e-001
      -1.3050990254677061e-001 8.4745647551665443e-002
      1.1438738889026148e-001 -1.9582257200241071e-001
      -3.4301621477504179e-001 1.7846211201965497e-002
      -8.5728608603057788e-001 -1.6671523843827213e-001
      -3.4811482699104412e+000 -4.4321505920982285e-001
      -2.8722082864489767e-001 -7.8503696003732071e-001
      6.2253286687834331e-001 -3.8314895197849086e-001
      -2.2492935770068554e+000 -1.7610909556697418e-001
      -6.8124215748296624e-001 -2.3129290438789638e-001
      -7.9488444361904531e-001 4.9614695824132371e-001
      -1.5826817440469843e-001 -8.3890368366583548e-002
      -5.4373164730803614e-001 7.1780630450268890e-001
      -9.1218821903451319e-001 -7.6483208240824974e-001
      -4.2233247404722751e-001 2.9341308573121355e-001
      -4.9869989366178602e-001 -7.4429199808772772e-001
      -5.3798588732016195e-001 -1.5482117251180980e-001
      -2.5779475152818543e-001 -3.5407986761404586e-001
      -6.4990846800279756e-001 5.1552723030644210e-001
      1.8409055871801450e-001 1.6644237702858394e-001
      -7.8630858715105945e-002 1.5580892379958067e-001
      5.0139172194906436e+000 -6.1904839030604630e-001
      -7.1225474052293192e-001 4.8239868176334150e-001
      -6.0071699791277100e-001 -8.3541904923516797e-001
      -3.7623829133623576e-001 -6.3961099666211153e-003
      -7.3967340522653524e-001 3.6069299704552732e-001
      4.3052862232916611e-001 1.0179167142898029e+000
      -1.8509856408509925e-001 2.9560249440662029e-001
      -1.0371226594923284e+000 1.3382584439077574e+000
      -6.4815195741928866e-001 -2.1181440220250258e-001
      2.3570845930184570e-001 -2.0931982780089833e-001
      -3.5673671026045445e-001 1.0286462263072599e-001
      -8.2867478818759222e-001 -1.0450276192442178e+000
      -4.4853444207739684e-001 -7.7609139777948241e-002
      -1.7944721209124531e-001 9.4077945511010763e-001
      -9.3287674421325073e-002 3.8057755333347787e-001
      3.7785169016977543e-001 4.4338168337228379e-001
      6.5075507228984786e-001 1.7486609118381605e-001
      -1.2397005311635780e-001 -1.3919491033300482e-001
      3.6701883315219874e-001 8.5241997829205685e-001
      -9.0505929375986394e-001 -1.8935389184913949e-002
      -8.1622758678829066e-002 -2.4541438218121867e-001
      -1.2142544008718913e-001 -6.9771470194301066e-001
      -5.9955649833415825e-001 -1.9927817388239230e-001
      -3.2988107298758651e-001 -7.6611725626731808e-001
      -1.1316674037256282e+000 2.0913735435571706e-001
      -2.8731367584266482e-001 -1.3015255892777484e+000
      4.3594447736889191e-001 5.9924107517170044e-001
      -1.0846565129082443e-001 -2.8479056260362967e-001
      7.5787466861436259e-001 -1.8016023949241700e-001
      4.4009416598209983e-001 2.1279064874682660e-001
      4.1141509708813540e-001 -3.9724789659880487e-002
      8.3583516628406951e-001 -3.1798285882813554e-001
      1.8248897685265350e-001 4.8315773113256855e-001
      -1.2430338837211734e+000 6.6520545605598924e-001
      3.6697666652723521e-001 -2.2664701530447914e-001
      -4.1797966418250448e-001 4.7644079340448242e-001
      8.0133856090540828e-003 3.0318716748890906e-001
      -3.7041716506126887e-001 3.6514353665581517e-005
      -5.1641409571990392e-002 -1.9435016931378599e-002
      8.1474748961220078e-001 -9.7352936388139433e-001
      2.6564877274214799e-001 1.6380427353291578e+000
      -1.7846291227783595e-001 3.3477349375421023e-001
      -1.5868920784636545e-001 7.7308567907109460e-001
      -4.2311833060222920e-001 2.4500548337417855e-001
      8.7401239686829824e-001 -4.4691002049429063e-001
      -6.7092955187357595e-001 -1.0879803048897675e-001
      2.5465051861935994e-001 4.4104068358904031e-001
      1.9206797560677957e-001 1.9388658290551172e-001
      -7.6711024678341087e+000 6.5089126463765190e-001
      -1.5598507721410948e+000 -4.3527984277167436e-001
      -8.1432993889823047e-001 1.6372933186416876e+000
      -3.6012684345686535e-001 7.6032272901471049e-002
      2.3409924546576905e-001 -1.2739499095793957e-001
      -6.9101963585752002e-001 3.3726899479718214e-001
      1.2512879718510217e+000 -2.5915100153835920e-002
      -9.3711040349065133e-002 -6.1978171056479986e-002
      -8.3111118405062054e+000 1.1346700155661051e+000
      -5.3940403571354245e-001 -3.2056329137891926e-001
      -9.4816075042799708e-001 6.6558386750705345e-001
      3.6600661185383560e-001 4.1604967856078323e-001
      -7.7342583448425956e-002 -2.8642491535849185e-001
      -2.4949859791913928e-001 5.4194003368169041e-001
      -1.3549263447586929e-001 -2.6382903959694187e-001
      -3.5496691507067279e-001 -2.3258109264622190e-001
      -5.0999263388196638e+000 5.9469269949508963e-001
      -3.8749987864466467e-001 -2.4782495931911955e-001
      2.1616040255697942e-002 9.9475921003204293e-002
      -5.7545774677745735e-002 -7.6171810190059336e-002
      4.2718774952754623e-001 -6.4789193365257158e-001
      1.3773552084185261e-002 5.1187760573159276e-002
      -1.4425656238615794e-001 -3.6362416669360204e-001
      -5.8079736713589969e-001 2.2432305709985445e-001
      -5.3173537364505874e+000 -9.0236382046669683e-001
      2.3277779054962439e-001 1.2514684983276949e+000
      -5.4350009331864158e-001 5.9829869617918574e-001
      2.7127516808963464e-001 3.0229712453814850e-001
      9.5045733230204121e-001 -4.7597713911634121e-001
      1.2277264930516498e+000 -4.0369525077922431e-003
      3.0679869044895869e-001 -1.4264619203786708e-001
      -1.5459334465217248e-001 4.4001973804499139e-001
      -4.0626396083452709e+000 -2.0710710122232072e+000
      2.1266901344957341e+000 1.6284105941436315e+000
      1.5780649576126651e-001 6.9494766321942825e-001
      -1.1534386374816449e-002 7.0267267368008446e-001
      3.5396276778037689e-001 1.3750297745531712e-001
      1.0047583136790406e+000 -1.5369120157470921e+000
      -2.1795571108290384e+000 -6.4417616409140377e-001
      -2.9735954842817627e+000 -1.4082633401188107e+000
      2.1567037683866217e+000 -1.6056519071937778e+000
      1.0725325534248682e+000 7.9517651431242731e-001
      1.8803373005759755e-001 -4.6953463761325948e-001
      -6.3499145830190751e-001 4.7233330310976324e-001
      -6.9456825330173055e-001 -9.2529918578832068e-002
      4.7695602943169779e-001 -7.9434899399449932e-001
      -1.1015142117324475e-001 -7.8213314051340488e-001
      -2.8090177754133019e+000 8.3851234955015819e-001
      4.0562144724202653e+000 -1.2804084770162152e+000
      1.1892100745444045e+000 8.4311238224505769e-001
      6.9141768823986260e-001 3.4693557707648898e-002
      -1.5895837662612788e+000 -1.6982063661959350e-003
      -7.9273381005402910e-001 -1.6222286120108237e-001
      2.3135348550991677e-001 -5.5053160699193782e-001
      -7.8109490451870767e-001 1.5552701715921613e-001
      -1.8798418912701877e+000 5.1689643058101631e-001
      2.4053232931955204e-001 1.6688133836699429e-001
      4.4065176268942896e-001 3.3918268025436626e-001
      6.1446067749933220e-001 -2.2305548409497120e-001
      -1.9138282323805333e-001 3.2473975676683930e-001
      -1.0228178927709633e-001 -2.8162166600142158e-001
      1.4676609256226883e-001 3.6025141062596644e-001
      2.4511571994285186e-001 -3.2958618080044316e-001
      -3.3736452616504503e-001 3.2883049575174228e-001
      -1.4540382006566410e+000 5.1479343299651159e-001
      -3.6009456771649552e-002 -6.1302087898071944e-001
      -2.2208915328673054e-001 -2.0808954170382896e-001
      -3.5371526245280910e-001 -5.1746173075955318e-002
      -4.4789959914581112e-001 -4.0597144141955149e-001
      3.5110778718418251e-001 -1.0575768178493090e-001
      8.2419525133347243e-002 5.4243611621249233e-001
      -4.6781345669566510e-001 -1.9606150200052097e-001
      -5.6594594141068566e-001 -1.7424793295641636e-001
      -6.6658044990163845e-001 -2.9171607633085511e-001
      -8.7500950988424996e-003 -2.9267754825333298e-001
      -1.1057480484008224e+000 4.8369347533867062e-002
      -4.7458882489187271e-001 9.7910321475462703e-001
      -1.1907749399920582e+000 3.2122686971819581e-001
      -5.7160395351566295e-001 3.5329892671980556e-001
      -3.7327311240124345e-001 -3.9889003499367010e-001
      5.6756387870878990e+000 -3.8169045658114675e-001
      -8.7048146411410565e-002 -3.3663823838490775e-001
      -2.9126001756394354e-001 -1.1126259179771456e+000
      -1.4953884307517216e+000 -7.6332721021611161e-001
      1.7069191544828571e-001 2.8148951370136083e-001
      4.0101961852847745e-001 1.0732640920524605e+000
      1.1659846133923981e+000 2.8935217639458677e-001
      6.5487657507711483e-001 4.1639567875291571e-002
      1.2001404514772209e+000 -6.3468318891890174e-001
      4.2922481317630679e-001 -1.0552121659463818e+000
      5.9591485034353175e-001 -8.9788211520017591e-002
      -3.5267741495584898e-001 -1.6105823780830758e-001
      4.7585317365247820e-001 -1.4282748345182456e-001
      3.5239038750813034e-001 9.1693326418083171e-002
      5.8942012644146913e-001 -5.6245031675933917e-003
      8.2996551360435888e-001 3.8663602798763569e-001
      3.6238722414147806e-001 7.2556490624680350e-002
      5.5283926949330020e-001 -2.1957427289566633e-001
      -2.0772336810539699e-001 -9.5569400949823646e-001
      -3.7999165511538319e-001 -4.5521947401813551e-001
      2.7180938462820287e-001 3.6829336067396340e-001
      -3.9036246318007195e-001 -3.3789038046654268e-001
      -2.2147662020732647e-001 1.7429297323947987e-001
      -4.9090404376316310e-001 -3.8750122441995655e-001
      1.0842948716615113e+000 9.6950539209752495e-002
      4.9406604348864146e-002 1.2390922617351847e-001
      4.5061859358682926e-001 -2.2161063699648209e-002
      -6.9168278309737086e-001 9.7293265081526159e-001
      4.8471571321146845e-001 -3.2528173201897831e-001
      1.7926465641200268e-001 2.2895730058219468e-001
      1.9164609465753160e-001 2.4379833372266430e-001
      -1.5379273336841881e-001 1.1349776663455153e+000
      -1.1701168624090290e+000 8.4162163570123893e-001
      -4.9512626542436056e-001 -4.5654673220693648e-001
      3.0694324583052957e-001 1.5478205783652752e+000
      -1.2359046256990212e-001 2.3594656502735284e-001
      -9.3519732809406245e-002 -6.8282929827428451e-001
      -1.3522339735247346e-001 3.6849585991838557e-001
      -2.3721575959188568e-001 1.3186051310621860e-001
      1.5568570419069258e-001 2.4753897925021109e-001
      -5.2230002635328532e+000 2.9628176870391071e-001
      -1.1039738700700614e+000 6.7991396654532954e-001
      -8.2344702538568859e-001 1.0249245062241987e+000
      2.6691766595379118e-001 9.4342618979755932e-001
      -5.9943897492816556e-001 -9.8074604430744028e-001
      -3.1712398589462426e-001 3.2621983840497415e-001
      -6.4910844994402705e-001 -7.1103528746265840e-002
      -8.6865709488761988e-002 4.4849948903453951e-002
      -8.8495708347158786e+000 1.1366918228278033e+000
      -1.4358517332747189e+000 -2.0236593256090471e-001
      -4.5032988536333518e-001 2.0609293062231084e+000
      2.5073916394301426e-001 4.1366047993748167e-001
      2.0482836220443729e-001 -9.5766008544125125e-001
      -5.2533366105430068e-001 5.5206760263587051e-001
      3.6863251557635734e-001 4.8529290915352513e-001
      -1.2989485208196019e-001 8.2069986526258257e-002
      -6.8623784919872879e+000 3.5420857099599401e-001
      -3.3299089636852214e-001 -5.7702863609565846e-001
      -1.0621652735621021e+000 1.3576917752664537e+000
      3.6111936232899511e-001 -4.9199982095159028e-001
      -2.0113575063279565e-001 -1.5309036416002004e+000
      -9.6891596534892122e-001 -4.4648089499302540e-001
      -7.5434712403812554e-002 -1.7243457243091526e-001
      2.8555026229338037e-001 -9.7815632890119075e-001
      -5.0900757887408208e+000 8.4541638021744792e-001
      -1.0059683086076332e+000 4.7743724264867810e-001
      -9.1091618037635291e-001 1.0594140702641841e+000
      7.3220946918259600e-001 8.3797702512433170e-001
      9.8184957276418378e-002 1.1281793373089838e-001
      -3.0245279799038549e-001 -2.2080836738410284e-001
      -4.7678075499622918e-001 -2.5258790113318175e-001
      4.9987357716851005e-001 -3.7443952081030504e-002
      -2.5767740828455510e-001 -8.0610837878688779e-001
      5.7127629038454630e-001 2.1736424165196683e-001
      6.9212520476069062e-001 -1.0694301713850738e+000
      -5.6883859744368104e-001 -1.0220115904788949e+000
      -5.2768483128387655e-001 2.5637152477737335e-001
      -3.5394064261397939e-001 -1.7499974353430026e-001
      -6.4883103444114054e-001 1.2126186032319290e-001
      -3.0443146034135088e-001 -3.9810531541826044e-001
      -1.1129350449632132e+000 -1.6087899177116831e+000
      7.5055688778105467e-001 1.6303948145160094e+000
      -1.7613315612541655e-001 8.8739548926879619e-001
      -6.7565011334217873e-001 7.4023467093288650e-002
      -5.4644171276791531e-001 3.2912533338233668e-001
      1.0877921899179599e+000 -1.6701578721910504e-001
      -3.6863451436363565e-001 3.0175998974082407e-001
      -2.2407093105863769e+000 2.9184187632022585e-001
      2.1651117051399655e+000 -9.6729534339676193e-001
      8.9088336501453136e-001 2.3923903078929354e+000
      3.6829678960974177e-001 -7.3441963591323445e-001
      -6.4650888904513470e-001 -7.6968189814396815e-001
      -4.7825191020156466e-001 -9.0692712941394509e-003
      5.3274396810227720e-001 -1.0851194372801269e+000
      -9.9520261294352860e-002 -4.9240828855372759e-001
      -1.8064015608225081e+000 1.8774678367560510e-001
      5.0489914766697497e-001 -4.6594810395893821e-001
      -3.8494693874845975e-001 -1.2330887322746230e-001
      -5.0257094870078778e-001 9.7196555533344164e-001
      5.2568355311022197e-001 -9.0393764708174029e-001
      -1.2830699786056352e-001 -2.9499833858948671e-001
      2.6517260029807938e-001 -3.0609777121834875e-001
      1.2039618389451132e-001 5.3339305670600912e-002
      -4.3183675068419469e-001 -4.5149091952214804e-001
      -1.3482401691759296e-001 -9.1375749236276213e-002
      -4.6193147956802481e-002 3.1405961435390611e-001
      -4.2992015243639148e-001 7.2636269005848408e-001
      -6.0440424647919477e-001 -2.5603422567118422e-001
      9.9638798771864912e-001 -1.5783564401661884e-001
      -3.3646531710641567e-002 2.0193054270384705e-001
      -3.4225378397302372e-002 -3.6252344250960661e-001
      -5.9054239951485088e-001 -1.4412585652951265e-001
      4.7573443386978767e+000 -3.8374024520324523e-001
      9.6131596858934035e-002 4.3604936202055722e-001
      -4.0497237111944306e-001 -2.6717667442751553e-001
      -2.7925266001354310e-001 -3.7480979134993897e-001
      7.0593043636260200e-001 7.4266314126567434e-001
      4.9889743731146075e-001 1.6003954377447191e-001
      1.5662506234001911e-001 -2.6862149910970012e-001
      -4.0871122175220459e-001 5.2499156403270353e-001
      5.7465912183451904e+000 -4.5075651984684911e-001
      5.9290177392900667e-001 3.4113723976756605e-001
      -4.0630382689547090e-001 2.0446167885602154e-001
      -5.2710222931604989e-001 -6.1201865065820471e-001
      5.5996762179222448e-001 4.3052851304336792e-001
      7.1022849425800982e-001 3.0578116026540092e-001
      6.0122126509955032e-001 -4.6914721917589566e-002
      -1.1703327276801887e+000 3.2689651098144185e-001
      9.4873006070457606e+000 -1.1891706699466850e-001
      3.0995226688940547e-001 8.8944969218042513e-001
      -4.6455074304288524e-001 -1.0803775877619881e+000
      -8.9914134566354720e-002 8.4397732272519721e-001
      -3.0749439366578413e-001 -8.3072841176999979e-002
      9.4828740990869992e-002 6.9479711647676679e-001
      6.5776708290273345e-001 -3.4161117942905883e-002
      -5.0584664932226775e-001 4.6870228502225325e-001
      3.5435084547478808e+000 1.0228267947947087e+000
      -2.8665187400451070e-001 7.0643626591402220e-001
      -2.8886098572921842e-001 7.5758646516667888e-002
      -6.7592677739148688e-001 7.4107910765105289e-001
      -1.7623988411222472e-001 -3.8109620690231050e-001
      -7.6107418960866813e-002 9.7326191077195567e-001
      8.3377439266488673e-001 -2.4100513734743621e-002
      -2.2660497080240935e-001 7.3816096898983741e-001
      3.1678694919106509e-001 5.4666939708658296e-002
      1.4664217147029340e-001 -3.4204616256562065e-001
      2.7492682102698202e-001 1.4814262916288598e-001
      1.1056894904934471e-001 -6.7774914618390303e-001
      9.0028336466330128e-001 3.8185427887425810e-001
      1.2924382948799365e-001 3.7145518902485869e-001
      -1.8566804334617003e-002 6.2155946664037523e-002
      9.2738641834114052e-002 -2.5205997155294640e-001
      1.6279164327624585e+000 6.1847613518567646e-001
      4.8077007447992515e-001 8.4477736715011645e-002
      -6.5850157227149841e-001 4.0588752607679668e-001
      2.0788016936700227e-001 1.4455708182733173e-001
      3.7365306377982632e-002 -4.6014549275336303e-001
      2.8629508998627895e-001 -6.4764949767175817e-001
      3.7256478762081374e-001 -2.3490181709103372e-001
      -1.9042746134975971e-001 -1.3414312703307523e-002
      -3.2833698914221761e+000 9.3680472205689824e-001
      -7.4089370099891561e-001 1.9126951970652364e-001
      -1.1181415086686064e+000 5.2468551528969132e-001
      2.0552156286387477e-001 1.2129637597974321e+000
      -3.4199074591543999e-001 -4.9986792841463323e-001
      -5.1898085864499499e-001 6.1470475446610673e-001
      -5.0943869064824088e-001 3.7917095205586913e-002
      5.4886585983497500e-002 2.0803129865288073e-001
      -6.3574437487377287e+000 -3.4210664557624788e-002
      -3.3019966426131192e-001 9.0449266244979132e-001
      -6.7674018697261840e-001 8.8763354729517818e-001
      9.4316921881892224e-001 4.4696134557941125e-001
      1.0195249028254290e-001 1.5093625670417044e-001
      -2.4634712359382951e-001 3.3289052063888169e-001
      1.6831044694146344e-001 -1.6089478883518962e-001
      -3.3285073862719772e-001 6.0817413098581262e-002
      -5.8482544651394184e+000 7.5761750836201924e-001
      -2.0355962180295589e-001 -9.5088497163738919e-002
      -8.2632539240420366e-001 4.4360457095201911e-001
      5.8685076847676509e-001 9.6464936364038389e-001
      -7.1906950614005294e-001 -8.8708355826375862e-001
      -2.0136623542800822e-001 3.1114051369098367e-001
      -1.6469708287239312e-001 1.0429114546582649e-001
      9.5737067590221536e-001 2.2852543070841422e-001
      -1.4554268913248820e+000 2.5290873170693795e-001
      -6.1179829521376772e-001 -7.4437959575313267e-002
      4.5741021265791343e-001 -9.5207267573022489e-002
      1.8065306107912259e-002 7.0941455489300065e-001
      -6.3995179609048995e-003 3.3432470670771521e-002
      -8.4212326986831376e-001 9.1945361948437865e-001
      4.0852838428905758e-001 2.2254657835000374e-001
      1.0724894460379903e+000 5.5468333461682118e-001
      -5.1532838896202362e+000 5.0749714299067983e-001
      -1.4315992207576955e+000 -2.1551408347934703e-001
      -1.1376265597756195e-001 1.5941600061146597e+000
      -1.3308684490048478e-001 1.6318024793116051e-001
      2.1099768928554505e-001 -1.0166412324413268e+000
      -7.3497006960351396e-001 6.5425811882190266e-002
      3.2154428706747129e-001 3.4013342941594221e-001
      9.4236444314031953e-001 -7.9167829150694202e-002
      -1.4161171601282971e-001 -2.6058501147158595e-003
